symptom,0,1,2,3,4,5,6,7,8,9,10,11,12,13,14,15,16,17,18,19,20,21,22,23,24,25,26,27,28,29,30,31,32,33,34,35,36,37,38,39,40,41,42,43,44,45,46,47,48,49,50,51,52,53,54,55,56,57,58,59,60,61,62,63,64,65,66,67,68,69,70,71,72,73,74,75,76,77,78,79,80,81,82,83,84,85,86,87,88,89,90,91,92,93,94,95,96,97,98,99,100,101,102,103,104,105,106,107,108,109,110,111,112,113,114,115,116,117,118,119,120,121,122,123,124,125,126,127,128,129,130,131,132,133,134,135,136,137,138,139,140,141,142,143,144,145,146,147,148,149,150,151,152,153,154,155,156,157,158,159,160,161,162,163,164,165,166,167,168,169,170,171,172,173,174,175,176,177,178,179,180,181,182,183,184,185,186,187,188,189,190,191,192,193,194,195,196,197,198,199,200,201,202,203,204,205,206,207,208,209,210,211,212,213,214,215,216,217,218,219,220,221,222,223,224,225,226,227,228,229,230,231,232,233,234,235,236,237,238,239,240,241,242,243,244,245,246,247,248,249,250,251,252,253,254,255,256,257,258,259,260,261,262,263,264,265,266,267,268,269,270,271,272,273,274,275,276,277,278,279,280,281,282,283,284,285,286,287,288,289,290,291,292,293,294,295,296,297,298,299,300,301,302,303,304,305,306,307,308,309,310,311,312,313,314,315,316,317,318,319,320,321,322,323,324,325,326,327,328,329,330,331,332,333,334,335,336,337,338,339,340,341,342,343,344,345,346,347,348,349,350,351,352,353,354,355,356,357,358,359,360,361,362,363,364,365,366,367,368,369,370,371,372,373,374,375,376,377,378,379,380,381,382,383,384,385,386,387,388,389,390,391,392,393,394,395,396,397,398,399,400,401,402,403,404,405,406,407,408,409,410,411,412,413,414,415,416,417,418,419,420,421,422,423,424,425,426,427,428,429,430,431,432,433,434,435,436,437,438,439,440,441,442,443,444,445,446,447,448,449,450,451,452,453,454,455,456,457,458,459,460,461,462,463,464,465,466,467,468,469,470,471,472,473,474,475,476,477,478,479,480,481,482,483,484,485,486,487,488,489,490,491,492,493,494,495,496,497,498,499,500,501,502,503,504,505,506,507,508,509,510,511,512,513,514,515,516,517,518,519,520,521,522,523,524,525,526,527,528,529,530,531,532,533,534,535,536,537,538,539,540,541,542,543,544,545,546,547,548,549,550,551,552,553,554,555,556,557,558,559,560,561,562,563,564,565,566,567,568,569,570,571,572,573,574,575,576,577,578,579,580,581,582,583,584,585,586,587,588,589,590,591,592,593,594,595,596,597,598,599,600,601,602,603,604,605,606,607,608,609,610,611,612,613,614,615,616,617,618,619,620,621,622,623,624,625,626,627,628,629,630,631,632,633,634,635,636,637,638,639,640,641,642,643,644,645,646,647,648,649,650,651,652,653,654,655,656,657,658,659,660,661,662,663,664,665,666,667,668,669,670,671,672,673,674,675,676,677,678,679,680,681,682,683,684,685,686,687,688,689,690,691,692,693,694,695,696,697,698,699,700,701,702,703,704,705,706,707,708,709,710,711,712,713,714,715,716,717,718,719,720,721,722,723,724,725,726,727,728,729,730,731,732,733,734,735,736,737,738,739,740,741,742,743,744,745,746,747,748,749,750,751,752,753,754,755,756,757,758,759,760,761,762,763,764,765,766,767
fever,0.020533366,0.015793512,-0.044436,-0.004475766,0.0056896424,0.02334565,0.01509471,-0.0017198841,0.017212206,0.04965245,-0.014685944,0.030633744,0.06213979,0.02876063,-0.0006143904,-0.13848802,0.028659059,0.003504718,-0.044459913,0.0063090767,0.038124483,0.030369973,0.022965986,-0.0032282986,-0.03550855,-0.008610077,0.028754825,0.05925683,0.004330112,0.015858574,0.009657931,0.0064898403,0.011132903,0.045461863,0.04544447,0.015239893,0.007892135,0.0057524163,0.029546244,-0.047955684,-0.05757755,0.030645808,-0.0026691053,0.025934255,0.04398365,-0.023411546,0.0056062485,-0.011236691,0.041736346,0.01766149,0.0178114,-0.008937267,0.03315038,-0.00085761753,0.021210141,-0.0081122825,-0.06815683,-0.014129747,0.10735819,0.053224597,-0.01571341,0.0054176287,-0.06941396,0.005551663,0.023787575,-0.05082986,-0.019941261,0.03282398,-0.011558623,0.019771436,-0.07683404,-0.032089584,-0.03435783,0.028448625,0.012376648,0.02250171,0.018842388,-0.041923154,0.033017755,0.031646825,0.0006016041,0.055894993,0.018663991,0.09664611,0.035566974,-0.029446121,0.036255013,-0.014211739,-0.00050115935,0.012244915,0.052661106,-0.010451597,-0.08409801,0.043268062,0.013902885,0.0077368934,-0.07009899,-0.052564517,0.05704349,0.016229877,0.07678349,-0.03088301,-0.021392386,-0.012821017,0.022538593,0.06520998,-0.014679246,0.005386657,-0.0622435,0.05663861,-0.007056665,-0.083789244,-0.020059189,0.09304413,-0.03459071,0.07533804,-0.03224295,0.020020513,0.0017728547,0.026811393,-0.051336937,-0.023517827,-0.10882626,0.02861192,0.016578875,0.022381008,0.040020164,0.02063712,0.026090907,-0.034242738,-0.09586462,-0.0070118154,0.04950132,0.035293538,-0.0022132995,0.0063828016,0.05415854,-0.011433629,-0.019013012,0.035958786,0.05853023,-0.019871129,-0.06342112,0.04962691,-0.003521809,-0.030317316,-0.010808584,-0.02594059,0.004888733,0.028512008,-0.030050715,0.014744002,0.022420358,-0.025308449,0.030294655,0.023002105,-0.009147143,0.003592453,0.07385937,-0.00031611245,-0.041702956,-0.019389093,-0.02314387,0.07291109,-0.057231057,0.0152152255,0.0400366,-0.012654903,-0.033792883,0.01768354,0.0055615506,-0.05063801,-0.024004329,-0.14820926,-0.04301342,-0.025371497,0.04957318,-0.061079152,-0.09439969,-0.030708788,0.05262319,-0.05089562,0.04683058,-0.030859187,0.0008173598,0.037523795,0.031109491,-0.028229509,0.056402825,-0.014863698,-0.05060324,0.01068715,0.01845251,-0.021601701,0.019380037,0.017182829,-0.014448228,0.0011269645,-0.040037576,-0.025419995,0.032703694,-0.0061242036,-0.021148898,-0.03278838,-0.018118292,0.022546027,-0.04869139,-0.043041363,0.0016313597,-0.032063328,-0.039425258,-0.03850182,-0.02492394,-0.05358584,-0.018707884,-0.000883794,-0.0012285839,-0.047213066,0.067222916,-0.035243504,-0.0015847607,-0.02391578,0.0040934556,0.049864028,0.01894593,0.04410161,-0.014081814,-0.014389614,0.011874147,-0.015223233,0.047030702,-0.015394111,-0.0065533626,-0.0028456908,0.029931532,-0.016121255,0.03672041,-0.022055626,0.026385669,-0.0035617345,-0.00019686142,-0.023131693,0.05548167,-0.0028320057,0.006634388,-0.03589799,-0.0051309136,0.07349655,0.03118542,-0.051744238,-0.0196175,-0.007720761,-0.024004929,-0.031134283,-0.10139166,-0.012231229,0.011335408,-0.017015789,0.028697219,-0.006304495,0.053213507,-0.015309892,-0.028309999,-0.068207674,-0.034768507,-0.056678064,0.05055674,-0.020470094,0.024222596,-0.0099750385,0.026205355,-0.013818173,-0.032021705,0.0015188039,-0.016943494,0.04760602,0.0040126937,0.008696383,-0.07164634,-0.014377369,0.004118272,0.06660455,-0.00387845,-0.007321498,-0.002796263,-0.049766056,-0.0046765977,0.06915273,-0.02807278,-0.023931112,0.018132057,0.022226965,0.012453753,-0.055263713,0.012733704,-0.013655301,-0.0022297287,-0.0554862,-0.015914638,0.03583201,0.10134542,0.024890125,-0.02831353,0.020928543,0.008292773,0.015488443,-0.033457767,0.024005212,-0.09302179,0.049729913,-0.04682268,0.029142765,-0.008988561,-0.0099919215,-0.043348312,-0.0028308637,-0.03769138,-0.021964692,0.014566438,-0.007270987,0.010566909,0.009508881,-0.050678696,0.06266012,0.023793595,-0.0059518595,0.0012291803,0.020230677,-0.015739005,-0.014863026,0.05360086,-0.03454911,0.016061183,0.0021225838,0.015716277,0.021033956,-0.066923976,-0.0025765907,-0.003988062,0.027190499,0.02849916,0.02782285,0.019035652,0.0216499,-0.0071723377,-0.049967565,0.06261608,-0.034454595,0.04254645,-0.011001214,0.020401241,0.054610312,0.029596962,-0.04733022,0.003819629,0.034705926,0.046890713,0.01445202,-0.0007207284,0.018367708,-0.042696726,0.046193723,0.029300721,0.032077312,0.019643249,0.031000353,-0.044141278,0.04924194,-0.017648,0.019552968,0.023640204,-0.022577772,-0.018521972,0.0007188163,0.04138417,-0.04309894,0.028528431,0.015396897,0.0038236459,-0.017668717,-0.022237578,-0.0015382104,-0.008500259,0.00861077,0.003991523,0.05304014,-0.059709106,-0.022838058,-3.3223958e-05,0.015523751,-6.196916e-05,0.044864316,-0.019291455,0.007748842,-0.005359853,0.05207088,0.010263154,0.00745532,-0.016716667,-0.053039286,0.023943339,-0.024717387,0.09013868,-0.008623972,0.041992154,-0.0004971237,0.023473784,0.052801616,0.045195345,-0.014022159,0.033874292,-0.004873544,0.036815904,0.004035363,-0.032409176,0.038473554,0.089692034,-0.04200437,0.04535333,-0.0024698072,-0.040824924,0.02764546,0.018684048,-0.031021407,-0.043316413,-0.004749625,0.033934657,0.0059372033,-0.0008379515,0.0051251575,0.020095386,0.06593856,-0.013314123,0.0018056695,-0.0070641977,-0.009963505,0.026091535,-0.016535457,-0.050103784,0.07204543,-0.03089402,-0.023883445,0.03940607,0.062156897,-0.005040819,0.02263318,0.023299651,-0.007493263,-0.04379203,-0.07183067,-0.06217004,-0.01147372,0.0092479605,0.03131115,-0.048892133,-0.030339118,0.025698282,-0.009093656,0.03626269,0.031765528,-0.035110015,-0.04390888,0.01733607,-0.019032335,0.026600461,0.05275428,-0.00040039694,0.06902456,0.032693665,-0.023246376,0.024068134,0.016046759,0.024214013,0.04090791,-0.023833951,0.0072673666,0.00120933,0.049201217,-0.031027773,0.09433413,0.01008044,0.017723545,-0.018330297,-0.018232482,0.018818853,-0.065255806,-0.03371322,0.049447622,0.041155633,0.03054668,0.045892045,0.03520427,-0.05042926,0.0034386076,-0.015162105,-0.008329163,0.011958737,-0.06460044,-0.0072917477,0.025682425,0.04503789,0.018508805,0.009996747,-0.007650215,-0.031110246,0.035653505,-0.013156858,0.03860477,0.009578536,0.023159295,0.029801235,-0.02425857,0.022849163,-0.040596496,0.05625302,0.02105074,0.005414159,0.054205906,-0.04330776,-0.016330523,0.006645594,0.008350865,0.047772545,-0.0007324636,0.004635799,0.016313089,-0.10107464,0.033111572,0.030996747,-0.006925986,-0.0054458156,0.04695557,0.063322395,0.038637273,0.0023032732,0.045192424,0.029468324,-0.011026884,0.0041987,-0.014838525,0.016715145,0.013163106,0.021765161,0.04308245,-0.03241397,-0.00932992,0.038594805,0.009414657,0.04495725,0.07346382,-0.0049508847,-0.077642985,0.0014307307,-0.033877257,0.057115216,-0.011941832,0.05553778,-0.04639068,-0.04867573,0.021908103,0.04434028,-0.06300506,0.02611873,0.038465336,0.026126275,0.026963834,-0.043969747,-0.010206827,-0.0057324786,0.008038513,0.045149,0.0037599388,0.03607767,-0.022547342,0.033971272,0.048112452,0.03059976,-0.031587224,0.034404695,0.0011258702,-0.06347469,0.02303128,0.076677985,-0.012963345,-0.0150636835,0.014332668,0.0003384903,-0.019894553,0.0003972231,-0.008248057,0.0023465687,-0.017111609,0.04425295,-0.013084642,0.05743698,-0.03400452,-0.034945287,-0.0058438024,-0.0041526384,0.041555908,-0.017030302,-0.0066604745,0.034328945,-0.03721466,0.01186854,0.01593988,-0.0014292718,-0.007160975,0.04328471,0.014865062,0.014134314,0.011962857,-0.04201679,-0.017311515,-0.041587964,0.007881627,0.026214479,-0.008599227,0.020690212,0.013588598,-0.042689417,0.005194736,-0.0044912635,-0.06670073,-0.08721637,-0.011439669,-0.029322533,0.047295645,-0.0028243638,-0.011734557,-0.06561829,0.040042248,-0.042629838,-0.018194502,-0.025875956,0.023899874,0.008493818,-0.057031237,0.03155751,-0.051240623,-0.02006855,0.067987464,0.011222113,0.013586598,-0.049202405,-0.030859657,-0.013649547,-0.05619451,0.0041477685,0.036743484,-0.004800621,0.013198526,0.012792407,0.031399682,-0.013565705,-0.049992457,-0.029146397,0.019860245,-0.011075968,-0.02196321,-0.023951195,-0.03809074,0.0041217236,0.06275656,-0.0016552866,0.029025285,0.017187145,0.0017209571,0.011735462,-0.017495662,0.02524855,-0.024833687,-0.0141841015,0.06548221,0.032464717,0.026638748,-0.0069175335,0.023354078,-0.039491534,0.0154272895,0.011246066,-0.019663705,-0.004731072,0.03014247,0.039292976,0.017139608,0.014362076,-0.008020689,-0.012135358,0.07681015,0.017357413,-0.055780802,-0.036500797,0.023410432,-0.009665394,0.093048856,-0.06806565,0.0036519559,0.020614333,0.02738352,-0.036219742,0.023159392,-0.010842986,-0.006569167,0.021318922,-0.023173863,0.05052467,-0.010926796,-0.04064249,-0.05273044,-0.04515595,0.016566861,-0.020285629,-0.017268643,0.026211917,0.04636057,0.02663563,0.05838575,-0.03743863,-0.0069038225,-0.043210477,-0.041287303,0.01240519,0.025915978,0.046397883,-0.019525146,-0.041003384,-0.02734576,-0.03194457,0.025463799,0.032311607,0.042918697,-0.023654282,-0.023540024,-0.014934985,-0.014755511,0.038838528,0.0039533847,-0.029342532,-0.007252154,-0.031222098,-0.018774506,0.022956017,0.042639162,-0.012270848,0.030136498,0.034245748,-0.08040357,-0.062956676,0.002310596,-0.02444653,0.023387304,0.012845695,0.025223631,0.0074316366,0.004055605,-0.013604916,0.017379856,0.039228763,0.04188096,0.011668836,0.021877974,-0.09630627,-0.0060281446,-0.04557411,0.051084038,0.08370343,-0.019488461
lip erythema,-0.0013000764,-0.0138814915,-0.028933547,-0.018480511,-0.0025442303,0.005614703,-0.01963647,-0.0074820803,0.070033826,0.10851055,0.06262306,0.03199822,-0.010093949,0.013151425,-0.03194223,-0.05550187,-0.018992065,-0.012902791,-0.09823562,0.031274244,-0.005077024,-0.006890661,0.04081121,-0.056451134,-0.036594894,0.036957256,0.0074872756,0.0070090834,0.020384833,-0.027672822,0.010970702,-0.02076322,0.01837333,0.05367776,0.07058376,0.04646267,-0.027894437,0.04401668,-0.009378475,-0.02888563,-0.0635347,0.015678763,-0.029537277,-0.0047031185,-0.037441496,-0.010989818,0.023759974,0.022801308,0.018821845,0.024142941,0.007567887,-0.03434971,-0.07849827,0.028677905,-0.069788165,-0.0024026637,-0.04337813,-0.012321824,0.043123014,0.023032846,0.01322564,0.0014205374,0.03260487,-0.025913382,-0.0060178926,-0.07301308,-0.01875297,0.013125029,-0.056924,-0.0019813525,-0.028082421,-0.061206304,0.004076214,-0.08630808,0.032107,0.022016924,-0.014966684,0.015253717,0.015867136,0.024378989,-0.009755599,0.029146275,0.021457085,0.08440416,0.060370896,-0.0074172355,-0.03413962,-0.044570744,0.033960473,0.027294474,0.062194053,0.028799882,-0.01302882,0.05561918,-0.03822791,0.0154587235,-0.06917476,-0.04062102,0.048773434,0.03505799,0.022936592,-0.012327999,0.0050543686,-0.036910933,0.022549612,0.030455926,0.031929873,-0.06470242,-0.07470378,0.02775879,0.050772052,-0.001277863,-0.021244386,0.012863325,0.019395588,0.029429745,-0.0026133615,-0.049381427,0.00735111,-0.005058124,0.016687386,0.031085981,-0.039360452,0.05261142,0.03971898,0.023667574,0.021777745,-0.02561677,-0.0021811211,0.012988661,-0.047226828,-0.032051697,-0.0102779195,0.042759627,-0.0028855084,-0.026643444,0.036435023,0.007193364,0.063799635,-0.04053475,0.05890108,-0.05929711,-0.031222576,-0.012061802,-0.047600716,-0.037080534,-0.022341408,0.032763984,0.014004823,-0.042226903,-0.0475226,-0.03814853,0.07724989,-0.034992117,-0.020654095,-0.019523742,-0.013834275,-0.055459056,0.017604703,-0.023944523,-0.015246367,-0.017778805,-0.03201078,0.046235662,0.017564444,0.0026524183,0.05439337,-0.07324721,0.027506609,-0.06788042,0.010616997,-0.022667909,0.027126485,-0.0847767,-0.020802319,-0.044684567,-0.03853701,0.06554172,-0.054371264,-0.0134269325,0.057702314,0.02995483,-0.0128216315,-0.032852367,-0.022688322,0.026397089,-0.0028336495,-0.05481549,0.079551734,0.010268139,0.0043152417,0.0807167,5.727529e-05,0.010123468,-0.04328145,0.07932737,-0.029992761,0.004055123,-0.043982595,0.019942949,0.015638225,0.033497877,0.005777927,0.031694714,0.009892092,0.0054534725,-0.007314624,-0.055632424,-0.020232495,0.011714238,-0.0066734697,-0.019695118,-0.007519647,-0.035268717,-0.0041896473,-0.01070269,-0.0500901,-0.04856479,0.02644085,-0.012505421,-0.001233892,0.018213158,0.0128733795,0.042057022,-0.009935865,0.009303294,-0.06320777,-0.036061555,0.039455242,-0.0143297985,0.01915267,-0.032636497,-0.029880498,-0.021218607,-0.04463059,0.037919044,0.0054285526,-0.014204391,0.09582223,-0.003823234,-0.018419351,0.010162548,0.077749,0.04039801,0.03626281,-0.06574748,0.033945374,0.082086,0.014870363,-0.016790468,-0.031671662,-0.013550584,-0.036622852,-0.060984436,0.004778349,-0.0095577305,0.04071383,0.021624569,0.0005991411,-0.0075966152,0.01417155,-0.01709955,-0.010504275,-0.054053947,-0.003962971,-0.04342261,0.07015539,0.004176656,0.061515566,-0.01150267,-0.008834949,0.005549354,0.021232065,-0.029401986,0.026022403,0.026136234,0.03744524,-0.002235216,-0.016091589,-0.005406496,-0.0010269935,-0.03318201,-0.0026881802,0.012310645,0.011188739,-0.024327133,-0.020725666,0.03184602,0.027697137,0.0058577843,-0.020625677,0.063956395,0.018016983,-0.0174738,-0.01178843,0.0174112,0.024380667,-0.02294685,-0.016696421,-0.007989522,-0.0059638917,0.007011539,-0.019628758,-0.04547116,0.091073625,0.057690773,-0.017371738,-0.0478986,-0.07535755,0.071350515,0.021906951,0.06968646,-0.0075386786,0.0058367974,-0.022738824,-0.03239125,-0.12934041,0.0042486847,-0.032705475,0.0035488722,0.03504827,0.049300153,-0.06452516,0.015417912,0.066339664,-0.025342558,0.07453162,0.006361868,0.030694751,-0.020736178,0.06342168,-0.006262272,0.045757774,-0.017818714,-0.018447962,0.0068679014,-0.017781397,-0.07142219,0.07052296,-0.054796677,0.006944324,0.013876617,-0.019463269,0.061430983,-0.005827174,-0.101679884,-0.031898152,0.005030024,-0.014278728,-0.026285632,-0.024121344,0.044060476,0.019932237,0.0022211354,-0.012258726,-0.012369094,0.0035518706,0.004447886,0.07544461,-0.010273958,-0.05484158,-0.0028717304,0.01853516,0.07095997,0.039463572,0.019434916,0.05606437,0.018299494,-0.03937902,-0.031133741,-0.01888664,0.027309407,-0.039311197,0.048106022,0.020045027,-0.01491877,-0.053326186,0.0005019649,-0.0052218363,0.0092950305,9.549306e-05,-0.04927023,0.013749273,0.044585403,-0.0120529495,0.03499786,-0.013406661,-0.031640116,0.011623288,-0.024498707,-0.006634369,0.03997396,-0.018638005,0.010725177,-0.015508884,0.031851143,-0.006463197,-0.011204793,-0.069334686,0.030632436,0.050328884,0.06767321,0.05119399,0.038519923,0.06873209,-0.02361533,0.040096156,0.026490863,0.06166376,0.05231972,0.02492769,0.0044069905,-0.03149963,0.034623336,0.0009448098,-0.01558791,0.032770474,-0.043377284,0.07995167,0.008191453,0.0013192539,0.030523123,-0.01535732,0.03040271,-0.020950748,-0.071791805,0.03364814,-0.0008977197,-0.019397553,0.003641086,0.039602607,0.036419775,-0.021743655,0.040478345,0.063528925,0.0110371,0.0028284395,-0.042757656,-0.017713234,0.025660725,0.027306054,0.0065668323,0.03190451,0.0032758683,-0.026233211,0.06320154,0.02559225,-0.03000839,0.01746992,0.0022161135,-0.00074663095,0.0034462227,-0.027486237,-0.07227727,-0.025148898,0.06032015,0.04091658,0.027569832,0.024323778,-0.024843547,-0.054422107,-0.022403536,0.03164319,0.00093645265,0.035247892,-0.021877559,-0.018900573,0.05064793,-0.00049081945,-0.020080972,0.052054092,-0.012023029,0.04332014,-0.008898302,-0.057416975,-0.046573028,0.0006330201,0.061949868,-0.009870209,0.005190744,-0.0028575247,0.004068724,0.021232197,0.00056608696,0.027393254,-0.044391133,-0.0024667594,0.005516359,0.0031623004,-0.04640983,0.048292536,0.035675205,-0.037606075,0.006138332,-0.031411536,-0.010980585,-0.027629538,-0.0026633076,-0.04922625,0.051765677,-0.002603475,-0.016027672,-0.01696161,-0.009303513,0.04231646,-0.0058672037,-0.051249363,0.013867883,0.017073357,0.03264508,-0.016115777,0.051582452,0.003661916,0.024328798,0.052590124,-0.015556417,-0.028401298,0.07380723,-0.030623375,-0.011210005,-0.03043613,0.063390754,0.03464923,-0.07744899,0.032516755,-0.024903907,0.0013817144,-0.014961356,0.07030415,-0.011747986,-0.023279198,0.046234526,0.013561784,0.025427133,5.0785042e-05,0.06405996,0.014264298,0.035161335,-0.008211847,-0.019100102,-0.04440267,-0.011209426,0.024375344,0.057344493,0.020943675,0.05356482,0.03898785,0.0559318,-0.026031638,0.09822539,-0.019943306,-0.03824941,-0.039965883,-0.0059846654,0.054710407,-0.015426356,-0.02543256,-0.014651424,0.0005464467,-0.044317756,0.02164219,-0.025426008,-0.008927281,-0.009187233,0.027977832,0.033378497,-0.03133772,0.011018855,-0.0098778205,-0.033294,-0.03818318,0.051968556,0.04345958,-0.018403402,0.0073372102,0.0150672225,-0.06137878,0.037245702,0.07851162,-0.024601452,0.0013454612,-0.0063269087,0.09652812,-0.049347997,-0.041104525,0.0046149064,0.0103839515,0.02034115,-0.017187657,-0.011386651,0.011545157,-0.01130939,-0.06813,-0.06606005,-0.039543323,-0.02931543,-0.008289523,0.013969309,0.026646996,-0.03717066,-0.0077105546,-0.0056439554,-0.008119688,0.048963007,-0.047056906,0.014197884,0.022070745,-0.052266434,-0.010371793,-0.044940777,0.007221492,0.05453662,-0.0036630547,-0.056628153,0.02973184,-0.04451218,-0.046127655,-0.08437839,0.02303103,-0.041803557,0.0171551,-0.010942475,-0.020038122,0.016486553,-0.041599423,0.034280475,0.031635765,0.04259381,-0.010424151,0.03062556,-0.017313223,-0.005538851,0.023926577,-0.007542405,-0.046801265,-0.030078871,0.010685135,0.008346471,0.021675525,0.0102840755,0.022654967,0.081967205,0.03466079,-0.011270647,-0.040114373,0.016879633,-0.010632225,-0.030406673,-0.037270203,0.039236367,-0.05234381,0.006660247,-0.05259631,0.018936323,-0.026472276,-0.03197882,-0.041816603,-0.00606449,0.00033564857,-0.03057209,-0.036675166,-0.012119267,-0.018585565,0.05124991,-0.018744707,-0.032071583,0.013474614,0.0017705419,0.0056382935,-0.0017399695,0.008711965,0.02121439,-0.014077809,0.0022041376,-0.049972545,0.014181042,0.0006963308,0.032017667,-0.004863362,0.012668906,0.023250189,-0.010267844,-0.016486263,0.05486936,0.043338414,0.022457864,0.094870776,0.0033445407,0.027813729,-0.0035892962,0.04117101,-0.011714923,-0.027957575,0.0610884,-0.040472783,0.06532531,-0.039028957,0.01334868,0.0092914365,0.0047437083,-0.026141899,-0.026971469,-0.011658786,-0.027155176,0.030052142,-0.0063103386,0.05583491,0.054016046,-0.044190813,-0.013273092,-0.013725755,-0.024498528,0.03593405,-0.014257242,-0.039154965,-0.026085928,-0.047658697,-0.0014151334,-0.005468133,-0.03255142,-0.026877094,-0.06589594,0.041507535,-0.018181967,-0.020731278,-0.059668332,-0.04080039,0.031159038,-0.039579984,0.06096345,-0.0020115068,-0.018021492,0.006327856,0.02417929,-0.013186593,0.015676605,0.025772685,-0.007519448,-0.016928587,0.018462313,-0.014703437,0.014856718,-0.008147054,-0.007795685,0.010573602,0.03843704,-0.020890312,-0.102835335,-0.0052007395,-0.017703205,-0.0631221,0.027720192,0.027855037,0.04426482,0.03403653,-0.0024569703,-0.057329666,0.017216966,-0.03714565,0.049432874,-0.009998754,0.028962692,-0.021733264,-0.015535044,-0.0021112543,0.018701382,-0.03061022,-0.023399647
lip cracking,0.023360992,-0.010940371,-0.008498977,-0.052526433,0.023835452,0.0061314916,-0.010922012,-0.03457032,0.04880438,0.03220293,0.014953716,0.0072926017,0.018749245,0.06427862,0.013390604,-0.040388294,-0.04058106,-0.0061412808,-0.12858635,0.0125661045,0.014385383,-0.03514724,-0.03981119,-0.03378662,-0.047082655,0.050459955,-0.017503273,-0.048787054,0.020988213,-0.023055289,0.011200787,0.03048236,0.043348517,0.0020587924,0.049128924,0.051473763,-0.0050838105,0.00028720542,-0.043643568,-0.04727792,-0.045896765,-0.0011323324,0.008565685,-0.010568411,-0.0025235133,0.03231561,0.021173766,0.044474654,0.028328596,0.012106382,0.039313544,-0.0077792145,-0.03757153,0.034386322,-0.017939735,0.014192556,-0.029586542,-0.037722643,0.042015303,0.024024509,-0.00518957,0.03960032,-0.0022284829,0.059458338,-0.02978835,-0.059209667,-0.0005330663,-0.0015454426,-0.029753946,0.0007648619,-0.06256548,0.0015026666,-0.00036340934,-0.022201084,-0.0019780165,-0.05511743,0.020810004,0.033295788,-0.008365504,0.025528042,0.006188759,0.028361337,0.041123196,0.095917255,0.07628639,0.03069666,-0.020345423,-0.038403198,0.0261727,0.0033882677,0.10508129,0.03280732,0.031018386,-0.0016703473,0.02705199,0.015499707,-0.092149556,-0.0037670184,0.018378152,0.015637139,0.060835306,-0.01119697,0.030654354,-0.03402579,0.009077025,0.02651772,0.04474461,-0.0126094585,-0.070703216,-0.001807434,-0.023816517,-0.025071576,-0.04259937,0.034036268,-0.028103575,-0.027090298,-0.02045673,0.033149637,-0.024089945,-0.028164545,-0.02650431,0.055585247,0.012713483,-0.005927063,0.019343648,-0.024113057,-0.014289824,0.0101213185,-0.030977655,-0.03185832,-0.039954897,-0.078121774,-0.04819974,0.069974385,-0.027931565,-0.033703428,0.02779492,-0.01605234,0.06623351,-0.0070300233,0.003990276,-0.072988905,-0.03813056,0.030181883,-0.047428206,0.009603423,-0.041096002,0.0037715377,-0.012766824,-0.04600272,-0.04721372,-0.038446676,0.07619019,-0.04766981,0.020130338,-0.0034218493,0.019468227,-0.050024863,0.008425893,-0.018888189,0.04626988,-0.09036103,-0.018120361,0.07995221,-0.008533308,0.020838436,0.009129759,-0.030912435,0.016649203,-0.025783293,0.00070615386,0.0021862262,-0.00704032,-0.07028354,-0.063505255,-0.010023772,0.007983907,0.0033758914,-0.03712503,-0.042608894,0.034183323,0.0073866094,0.024689037,-0.0043019317,-0.04106022,0.025671657,0.022473665,0.011677951,0.033951987,0.05823345,-0.052402567,0.008683919,0.018337036,0.034813073,-0.069516435,0.09317011,0.014138905,-0.050993133,0.011001058,0.0076519903,0.0068994146,0.01832693,0.014007198,0.043488506,0.014240455,0.014271374,-0.009449311,-0.012016297,0.009744794,0.062756985,0.02614,-0.00983739,-0.04246637,-0.0007062119,-0.016355228,-0.001337006,-0.047183894,0.009621956,-0.01843636,-0.00880166,-0.017711932,0.066830285,0.015660262,0.0697563,-0.010215332,0.03504594,-0.06210677,-0.011478836,0.053789925,0.0028806287,-0.009833201,0.018236334,-0.018510286,-0.056561675,0.0056008096,0.015224054,0.033119693,0.010902985,0.11651992,0.009773239,-0.011315298,-0.011133428,0.080943234,0.00223113,0.01806233,-0.04111259,0.056714926,0.07345926,-0.04093419,-0.016951019,-0.003393082,-0.028834578,0.018693294,-0.029408835,-0.028653687,-0.0027349354,0.06450288,-0.011364032,0.029825445,-0.03486525,0.08186631,-0.042680234,-0.03195399,-0.056242496,0.036961224,0.0027988432,0.03712751,0.047458887,0.03411268,-0.02278942,0.016949316,0.04183018,0.06777328,0.016361589,0.014237117,0.007984873,0.027062418,-0.006041805,0.023002611,-0.00143475,0.01826595,-0.015807107,0.028267037,-0.042062327,0.026416706,-0.054714404,-0.013605943,0.016799629,0.023305219,0.035014942,0.036017504,0.045496635,-0.022899797,-0.03951453,0.0077143796,0.018483946,0.022827284,-0.016291996,0.0108530475,-0.022402557,0.042628597,-0.003212868,-0.013248944,0.0013688455,0.04300858,-0.010008413,0.0023451988,-0.06275993,-0.043068673,0.06910082,-0.01741138,0.05663021,-0.02232342,0.0073120394,-0.05453285,-0.017313614,-0.11733493,-0.04481964,-0.036953274,0.07636092,0.019634783,0.0058707166,-0.08627392,-0.004197607,0.0520233,-0.00061095686,0.045791212,0.013252533,-0.00350915,-0.00863358,0.04456956,0.022907617,0.0009519087,-0.0047701173,-0.04052895,0.043787867,-0.012873432,-0.010336467,0.07200083,-0.0231905,0.023727376,-0.017997712,-0.014386609,0.05012827,-0.023000479,-0.08830679,-0.04573997,-0.031290565,-0.01978238,0.028534474,-0.022947483,0.06451937,0.063848965,-0.009969153,-0.022881936,-0.026185917,-0.0039950963,-0.018361349,0.075327635,-0.009063572,-0.05457716,-0.014198737,-0.03642221,0.056449756,0.022761466,0.011954733,0.04061248,0.06528073,-0.03517686,-0.019411612,-0.006973319,0.02307448,-0.027422994,-0.008397415,0.024176817,-0.012929406,-0.049491186,-0.00486865,-0.02577416,-0.012493239,-0.0013021653,-0.0032417243,-0.012387754,0.025819853,-0.0001652439,0.01411712,-0.03931801,-0.034475856,0.05691052,-0.0186111,-0.00030464583,0.05120955,-0.048069753,0.03049783,-0.048501708,0.06846489,-0.02177391,0.039579336,-0.06218586,0.040952362,0.019407503,0.029376106,0.050758384,-0.01635841,0.00049902167,-0.031393778,0.03618147,-0.024678754,0.029499363,0.011124261,0.009884731,0.034061488,-0.0094573945,0.02818892,-0.06278367,0.0104403095,-0.06564945,-0.039150316,0.057986345,0.010341726,-0.009149836,0.032698765,0.02228855,0.01247133,0.033607315,-0.053121757,0.043604154,0.0020497772,-0.019089904,-0.061806455,0.011861237,0.008937426,-0.031911474,-0.0018576172,-0.00940065,0.023266258,-0.015618192,-0.076741695,-0.019177802,0.028656445,0.012614327,-0.023668796,-0.014578688,0.029470831,-0.027512612,0.029685007,0.06753066,-0.027119618,-0.034330536,0.0065587414,0.03534288,0.022195196,0.04619959,-0.04252521,-0.014891606,0.028021967,0.021213997,-0.03645232,-0.0044400725,-0.004994621,-0.04740258,-0.05461519,0.028439378,0.014525751,-0.01765311,-0.010892082,0.012682385,0.054184124,-0.01773921,-0.014933352,0.04720903,0.036548976,0.009530211,0.007967152,-0.05963812,-0.011250327,0.013322525,0.06329892,-0.025301913,-0.02270896,0.013468193,0.0037515399,-0.012984909,0.02458118,0.04707517,-0.029666455,0.028602445,0.0369129,-0.02558558,0.019327335,0.017664807,0.032997742,0.004077761,-0.008352274,-0.06479682,0.0073695276,0.0068519223,-0.043674573,-0.04614001,0.04987892,0.003152025,-0.046810668,-0.023108914,-0.015797796,-0.024141772,-0.018108726,-0.021095816,0.018905835,0.065148875,-0.0027311025,-0.017881015,0.046982862,0.015352569,0.026874473,0.025639798,0.022483308,-0.08132048,0.046938494,-0.0069794287,0.058098037,-0.08755731,0.032939497,0.0314441,-0.066398904,0.0032848294,-0.01724748,-0.00088394055,0.005523946,0.0678299,0.019676194,-0.058401458,-0.009936974,0.0375277,0.011195747,-0.004140622,0.090446986,-0.0049406253,-0.007951352,-0.022321071,-0.03022307,-0.020400245,-0.026160413,0.01102143,0.03377412,0.01561957,0.027475975,0.017768359,0.040241323,-0.043066353,0.055862695,-0.0093983505,1.3103546e-06,0.013236827,0.016135842,0.051725384,-0.011891249,0.014858351,-0.06576594,-0.0084753195,-0.02867569,0.04697725,-0.059101373,0.01131543,0.019862846,0.02954808,-0.005173366,-0.021833137,-0.034077473,0.01950349,0.017192855,-0.052318912,0.03688287,0.028338687,0.013382625,-0.0023130733,0.060891412,-0.046413884,0.044434052,0.06483177,-0.008684595,0.0060245967,0.010689666,0.019713648,-0.047877535,-0.032139692,-0.010636987,-0.00034590546,-0.05020939,-0.008776303,-0.0025098654,0.010997099,-0.018992864,-0.052914545,-0.017631145,-0.07221339,-0.01774596,-0.052151967,-0.0053970404,0.031890094,-0.079469614,-0.08434631,0.01756184,0.039455883,0.020180665,-0.014195867,-0.033300567,0.015512463,-0.07232017,0.009693629,-0.036377,-0.028450033,0.05132942,-0.05167952,-0.05313123,-0.012682846,0.024396753,-0.043947008,-0.013503563,0.035805058,-0.039931607,0.0210137,0.014739105,-0.020085245,0.063276164,-0.070505135,-0.02852049,0.06667363,-0.015787406,-0.0011818007,-0.00597682,-0.012721391,0.05155249,0.060132805,-0.04281577,-0.051438022,-0.03143529,-0.0053413305,-0.0024071299,0.027542638,0.02786123,0.03534049,0.029744616,0.015014998,0.0045602834,-0.085531585,-0.0005230071,0.019593824,0.0041475315,-0.038005877,0.04565182,-0.056440078,0.026054174,-0.010440636,0.010887804,0.022500545,0.010105941,-0.039685957,0.011696886,0.004548769,-0.07962283,-0.0159303,-0.027283978,-0.025338765,0.015649103,0.004277605,-0.079141974,-0.022711383,0.041896947,0.016265906,-0.019633988,-0.008393339,0.036767073,-0.031073293,0.019273465,-0.046412513,0.006507102,0.020005222,-0.05758092,-0.0043503228,0.0012374885,-0.024866527,-0.03305684,0.022415793,0.026818477,0.04339279,0.05965481,0.044889554,0.030032005,0.047791664,0.029342173,0.02715508,0.006603873,0.002690857,0.05479676,-0.027352337,0.092787944,-0.030694222,-0.013532316,0.042789362,-0.0014374215,-0.03264068,0.014076718,-0.03344068,-0.020942109,0.037848476,5.136885e-05,-0.0023451685,0.061079357,0.0010883987,-0.0014976871,-0.004202357,0.0017666405,0.042499416,0.024879526,-0.011910053,0.0021754005,-0.0069162897,0.03345404,-0.025015965,0.0341534,0.0013185086,-0.07912529,0.047438316,-0.02328645,0.027687652,-0.04765678,-0.032923438,-0.016527757,0.019318916,0.037415083,0.038573492,-0.02994757,-0.025067251,-0.021970281,-0.0010998104,0.017503098,-0.05428941,-0.049017314,-0.054896124,-0.018169703,-0.007060836,-0.06112009,-0.012183305,0.017444834,0.023715878,0.032558165,-0.054543044,-0.032828562,0.011048269,-0.025557393,-0.053022332,0.03665503,-0.0031621503,-0.004234151,0.03469628,-0.014136977,-0.06916534,0.020628236,0.014475856,0.0062543345,0.0020590248,0.04826326,-0.028486976,0.012453612,0.008660227,0.030237246,-0.023318924,-0.0015596612
tongue erythema,-0.023492787,-0.0041614175,-0.0436743,0.0067394106,-0.012332406,-0.037408143,-0.011255451,-0.0044864416,0.030620428,0.10048858,0.06804928,0.01825952,-0.012528691,0.0034842996,-0.04363295,-0.057830922,0.03326393,-0.014095687,-0.082367204,0.05929363,0.0056280354,0.00073303183,0.047807094,-0.0127548715,-0.01393163,-0.032879144,-0.00052784797,-0.0071906843,-0.042032313,-0.048031528,0.010598845,-0.08281536,0.020015331,0.03376956,0.050863244,0.049937848,-0.008396871,-0.0021471847,-0.008465925,-0.022162396,-0.039903693,0.039450195,-0.049533013,0.02062153,-0.03653987,-0.012155578,0.027609607,0.025442537,0.036037177,0.032425903,-0.005618838,-0.03147375,-0.057883166,0.017930292,-0.04437247,0.0047702384,-0.04630951,-0.003354151,0.061554722,0.016515428,0.03913029,-0.0039414614,0.004568902,-0.05384665,0.00418881,-0.09431991,-0.029275341,0.07189074,-0.033692315,-0.044554003,-0.035308983,-0.052773666,-0.011600181,-0.055813715,0.04251591,0.060363576,-0.008207236,-0.003949056,0.006478367,0.02175363,-0.017307805,0.04023339,0.006374173,0.042752095,0.021419063,-0.02016219,-0.01673222,-0.0208829,0.03272226,0.032612897,0.10340124,0.00064014253,-0.04696776,0.027122026,-0.02221492,-0.020378422,-0.041930333,-0.08303132,0.0020747902,0.074851416,0.026263524,-0.035688475,-0.013327494,-0.03205696,0.00462486,0.023332354,0.05492859,-0.06509304,-0.05070501,-0.011257101,0.031678595,-0.027392592,0.016615978,0.054689515,-0.020706298,0.020428777,0.004304012,-0.060292773,0.012097528,-0.023217851,-0.018788772,0.020620693,-0.07536818,0.04681301,0.05827148,0.041203856,0.037263125,-0.02424978,-0.027176555,0.009828589,-0.011122895,-0.0689641,0.024647295,0.0055012065,-0.0198138,-0.015671616,0.04590675,-0.0030938778,0.0060579013,-0.041981,0.021586377,-0.029834593,-0.040868964,-0.029698458,-0.032649532,-0.027127137,-0.025595266,0.045984317,-0.008030181,-0.05539008,-0.03410712,-0.023382964,0.049258832,-0.035029277,-0.0010099146,0.054240488,0.007297691,-0.022577452,0.028435033,-0.01791052,0.0032240527,-0.0005756332,0.015840732,0.078977354,-0.010103531,-0.0053004054,0.06481575,-0.061088227,0.025379332,-0.027212719,-0.014412947,0.013686521,0.02784068,-0.12252767,-0.007038188,-0.048340496,-0.03577097,0.039728016,-0.06904343,-0.027300142,0.056257468,0.024429005,-0.029159117,-0.07236485,0.0044389577,0.0201352,-0.04184533,-0.030755684,0.06404322,-0.05288693,0.013392446,0.062204357,-0.00474941,0.051704895,-0.015190671,0.002453091,-0.009121541,0.00072735065,-0.036313936,0.02625509,0.03536165,0.045262247,-0.012792636,0.005589185,0.022347614,0.009088108,0.0049002147,-0.045320902,-0.04001391,0.012942908,0.025302993,-0.040834937,-0.005277926,-0.026000028,0.020715533,-0.016313499,-0.04207386,-0.047210474,0.045694143,-0.01786144,-0.02926206,-0.0030665314,0.029991899,0.020067066,0.041427515,-0.009345949,-0.07844666,-0.025083818,0.041097526,-0.020102266,-0.000107996384,-0.06943693,-0.067058146,-0.01325952,0.010669908,0.041757096,0.031803116,-0.04052583,0.024733264,0.014499932,-0.014016511,0.0037190916,0.09327433,0.038408723,0.0036607473,-0.03809154,0.018896645,0.06812622,-0.017172895,-0.019172769,0.0059719975,-0.026790073,-0.05325606,-0.05740344,0.010079117,-0.048162308,0.04080795,-0.049642038,0.0073852725,0.02048615,0.037271928,-0.014794217,-0.027450878,-0.06706275,-0.02386301,-0.021857934,0.03277787,0.025828464,0.07934632,0.00042656972,0.0040351003,-0.01720453,-0.034001715,0.0014883957,0.031784352,0.055216,0.033329666,-0.03149429,0.0066548376,-0.08189682,-0.0028840583,-0.008951896,-0.010427064,0.004344715,0.014376805,0.020142991,0.015896047,0.0082540335,0.0040409616,-0.026360221,-0.0057547544,0.04339142,-0.0038560655,0.0016422403,-0.01246051,-0.0049819727,-0.038095362,-0.0040264735,-0.035184648,-0.019359345,0.05169503,0.01931706,0.0096511515,-0.038742717,0.040196106,0.031744123,-0.029305836,-0.048676886,-0.021355342,0.02937439,-0.02323758,0.058788814,-0.023159824,0.017909667,-0.0321088,-0.010558524,-0.088225454,0.0069744145,-0.027458586,0.009281293,0.032194596,0.07542029,-0.03610585,0.00077802356,0.048248198,-0.005240502,0.037576847,0.01382902,0.0063966135,-0.013404521,0.050716996,-0.023519577,0.08910944,0.028931092,-0.019705717,-0.004699156,-0.022680447,-0.072918266,0.07292142,-0.006498217,0.01195733,0.0058562574,0.004419889,0.09054699,0.0056311437,-0.04466697,-0.023516499,-0.014315914,-0.0036447998,-0.0003626133,-0.03798477,0.052018393,-0.008435434,-0.04504308,-0.020073624,0.023071222,-0.002247583,0.01304439,0.031917803,0.033773784,-0.052930146,0.03679725,0.03182007,0.08535793,0.060312755,0.04809753,0.0120528005,0.009339092,-0.038187735,-0.023889847,0.01852449,-0.025930831,-0.029193034,0.024577297,0.0043311454,-0.03757443,-0.026128238,0.0087679345,-0.014771165,-0.010122149,-0.0249094,-0.067811914,0.010051823,0.036985163,0.0030493776,0.034693036,0.0070478925,-0.0011007278,-0.0292837,-0.00910074,0.008492349,0.021202506,-0.0042566294,0.018581478,-0.007377832,0.020596016,-0.031353604,-0.028357476,-0.047146026,-0.007948433,0.0139136035,0.022501012,0.05937964,0.040996168,0.062709585,-0.012440093,0.046461318,0.07074774,0.07755672,-0.0026398974,0.02149359,-0.024949003,-0.013267857,-0.014812246,0.005102673,0.026316708,0.032216165,-0.025591772,0.034388907,0.0026879632,-0.022865508,0.007732959,-0.023758577,0.06145625,-0.024278365,-0.09323133,0.023928992,0.023481654,0.0020587032,0.0024531188,0.05290369,0.037719127,0.0020627633,0.0014526271,0.018088996,-0.007444868,0.016128274,-0.036684304,-0.041500177,-0.013508593,-0.0031179213,0.033173997,0.0071769273,-0.013144227,-0.045629967,0.0363576,0.029015068,0.023809217,0.015559729,-0.009089033,-0.005244453,-0.012431912,-0.03150658,-0.050266087,-0.025614593,-0.011532114,0.022077927,0.055733074,0.022510814,-0.03427236,-0.049875952,0.0035322364,0.0242943,-0.033117678,0.010640051,-0.027335294,-0.0049589276,0.03855047,0.017494092,0.02069663,0.023363426,0.034130987,0.04737203,-0.0030322315,-0.047250003,-0.053361353,-0.012662351,0.013933854,-0.01829566,-0.004291438,0.026486138,0.024303054,-0.032433864,0.0149708595,0.03603159,-0.033011887,-0.029089607,-0.00980606,-9.107173e-05,-0.003384614,0.04847985,0.03865823,-0.06014292,-0.0016701607,-0.046001937,-0.009631925,0.00185491,-0.03216742,0.007994706,0.08028252,-0.019807076,-0.0132842045,-0.029213114,-0.048953302,-0.002241263,0.008786094,-0.06738076,0.01925272,0.045919914,0.01580559,0.021486271,-0.0136758145,-0.009830505,-0.004268382,0.034172546,-0.00370205,-0.04570635,0.05882413,-0.017539293,0.01225347,0.00018105152,0.11537246,0.06126206,-0.07804385,0.0073083416,-0.031088842,0.01799386,0.03004527,0.07810107,-0.0379952,0.020384565,0.028436234,0.0033072347,0.025303274,-0.022783175,0.03535845,0.058454487,0.039969467,-0.027271619,-0.020642085,-0.04317173,0.018916963,0.022733169,0.015039361,0.025727553,0.07298742,0.044889566,0.05585131,-0.0016187129,0.10123081,-0.021059992,-0.023470143,-0.014254499,-0.015837904,0.017675437,0.010452633,-0.029394861,-0.04383871,0.042709652,-0.013891311,0.05705989,0.0074150236,-0.006137819,0.010039465,0.019053183,0.047465812,-0.043579403,-0.010765007,-0.015037886,-0.056277156,-0.000363448,-0.0068125217,0.02828011,-0.010113436,0.0038950704,-0.0062318887,-0.043701004,0.05433907,0.12680407,-0.02776841,-0.016341282,-0.017482277,0.107630186,-0.007980424,-0.060654584,0.0032366144,0.060858697,0.030917905,0.011717747,-0.018110134,-0.017645223,0.0020623868,-0.037893392,-0.0680646,0.0003406151,-0.04948161,0.013074075,0.01696469,0.04518476,0.00458977,0.021476068,0.019255674,0.0049988395,0.019928437,-0.08614804,-8.841645e-05,0.00011400437,-0.024251001,0.029124234,-0.014476786,-0.005543477,-0.005976128,-0.018445749,-0.036663104,0.0202069,-0.03127223,-0.013357518,-0.06486579,0.05052285,0.0061902166,-0.024023473,-0.02024771,0.0009511767,-0.040299196,-0.070198596,0.033097263,0.010676465,-0.00162683,-0.040170383,0.0627885,-0.025676472,0.016640602,0.008680476,0.01252093,-0.060721226,-0.014238373,-0.0122851,-0.012694157,-0.0035784263,-0.014570334,-0.00832189,0.093021184,0.059980407,-0.006013002,-0.07538651,0.021820508,-0.057639442,-0.037021946,0.0046877638,0.061644115,-0.02498075,-0.0013255017,-0.052628696,0.028540798,-0.030550245,-0.0022334554,-0.028489795,0.0031196137,-0.010619633,-0.026776865,-0.04962929,-0.00033723432,-0.016571138,0.055926505,-0.017182047,-0.031177884,0.040931042,-0.0023221585,-0.020026531,0.016984835,0.041679617,0.025732845,-0.026497142,-0.025101127,-0.05557972,-0.023273971,0.0017327246,0.03314617,-0.039080024,-0.016603928,0.027609881,-0.033558663,-0.020305166,0.05496671,0.035437696,0.04089926,0.077380486,-0.029982802,0.010670734,0.029545655,0.04843217,0.01921225,-0.034141358,0.053432513,-0.0397769,0.039325576,-0.083427235,0.049205218,-0.025596354,0.018439434,-0.038469248,-0.036831487,-0.034026034,-0.0414582,0.042471897,-0.010802414,0.050541345,0.04739474,-0.04640987,0.01965385,-0.0154102715,-0.03972242,0.020635368,-0.02018055,0.010796524,-0.036117975,-0.0702908,-0.008049492,0.012088917,-0.05802047,-0.009365581,-0.051461153,0.019525573,-0.010576294,-0.03433469,-0.03046955,-0.06987887,-0.011428307,-0.031895246,0.043767907,0.031387497,-0.0060834996,-0.035106603,-0.0021124256,-0.029009825,0.008821015,0.025248133,-0.031438194,-0.017442947,0.0022941648,-0.023198528,0.020444065,0.0035489378,0.023964401,-0.001960987,-0.0041490817,-0.015071018,-0.09820218,-0.00095191976,0.0029404312,-0.02718829,0.0063452455,0.031847294,0.02282167,0.023081336,0.010895363,-0.018496206,0.025695182,-0.009863031,0.040743805,-0.023114698,0.0153728565,0.01240702,-0.024712885,-0.0074138804,-0.007886733,0.01307471,-0.008866011
oropharyngeal erythema,-0.0074470267,0.008867179,-0.04370874,-0.044869315,-0.0060556913,0.043411937,0.012945678,-0.009354172,0.038857177,0.06311498,0.05738274,-0.011605873,-0.021642126,0.028198365,-0.0016597543,-0.09723672,0.027249552,0.024982722,-0.058794376,0.05267855,0.007633233,0.01771693,0.072406806,-0.015922233,-0.02739085,0.030096186,0.009139666,0.01765325,-0.049897213,-0.058049962,0.01689804,-0.013051403,0.05454086,0.0774192,0.03191896,0.04931977,-0.0077849636,0.01612997,-0.02037329,-0.0048296363,-0.009373159,0.049566485,-0.0023460847,0.012003489,-0.06612423,-0.068338774,0.042049654,0.0154774925,-0.0012301055,0.05704815,0.0012811702,-0.02727016,-0.059002824,0.054320756,-0.0149224475,-0.03504239,-0.025801778,0.028744953,0.059530094,-0.0041829264,0.035239644,0.0011402713,-0.0025066151,-0.07362248,0.0074279895,-0.06308915,-0.022511346,0.06260432,0.01238106,-0.017633606,-0.0008815702,-0.09031427,0.0067813518,-0.045628957,-0.0041057104,0.073990114,0.017578973,0.010725229,0.016198846,-0.0052124187,0.002043796,0.031826884,0.013965585,0.03740414,0.04877857,-0.018521056,-0.026825702,-0.0091236215,0.032626376,0.05228473,0.09494346,0.019428067,-0.020998452,0.042860825,-0.050883677,-0.008173863,-0.07419917,-0.07905242,0.037218656,0.044744834,0.047476377,-0.03597309,-0.0144199245,-0.025662808,-0.0026294277,0.044713814,0.06597303,-0.06400451,-0.05637898,0.019732496,0.009992701,-0.021163566,0.041886035,0.0428303,-0.031857412,0.0084826555,-0.024743319,-0.018203892,0.035946947,0.011066269,0.00414913,-0.026588872,-0.043984357,0.01741324,0.033317536,0.017973345,0.08475408,-0.046033297,0.008702291,0.028943531,-0.015076906,-0.0499543,-0.010032855,-0.0058401255,-0.021717709,-0.06910516,0.03956858,-0.0017875006,0.03029658,-0.001377288,0.03630302,-0.023110645,-0.055190045,-0.021271044,-0.005867132,-0.040601593,-0.0016520388,0.013339681,0.0038584806,-0.06635558,0.010756106,-0.008652583,0.03204393,-0.041675825,0.0059572477,0.03333336,0.010643315,-0.03158388,0.045489855,-0.009737543,0.017422305,-0.018659715,-0.011184702,0.06498382,-0.030898862,-0.04116996,0.06838775,-0.04905763,0.0010664082,-0.026357722,-0.013502613,0.0039500743,-0.018518185,-0.11751499,-0.023708578,-0.0830964,-0.024195815,0.010135295,-0.07126344,-0.043855622,0.09042319,0.016168453,-0.04480811,-0.06678247,-0.0086204875,-0.011526283,-0.029710833,-0.01852743,0.020974636,0.0032198504,0.06519429,0.09581987,-0.013616443,0.009831117,-0.017410396,0.04063804,-0.013738455,-0.009847096,-0.028156178,0.05241431,0.003867656,0.020447873,-0.015757991,-0.03829688,-0.018269954,0.019507932,-0.0029408925,-0.058719452,-0.049224943,0.0008543593,0.021027189,-0.0076024216,-0.00842853,-0.026931811,0.0019198888,-0.0024200801,0.00054121664,-0.040440395,0.05992006,-0.012464106,-0.024638204,-0.029233793,-0.02799122,-6.726474e-05,0.05058526,-0.009878095,-0.0698774,-0.012144469,0.02765962,0.0076229787,0.0044541312,-0.055828083,-0.022202093,0.03590724,-0.02453574,0.053309374,0.058030017,-0.00076973165,0.05504261,0.009695239,-0.064204454,0.014380318,0.085412994,-0.00065845775,0.017861513,-0.06541013,0.013760256,-0.009185247,-0.0019145118,-0.0072553162,0.0041634208,-0.014792716,-0.07276197,-0.029338041,-0.010928301,-0.006136676,0.013379662,-0.04006918,-0.019958295,0.014706586,0.010558468,-0.04113069,0.004689684,-0.07417038,-0.00052954355,-0.01778837,0.052893642,0.012852903,0.06984088,0.0073984587,0.007929322,-0.015431863,-0.018341715,0.0062708785,0.006176156,0.037936255,0.020601908,-0.02556317,0.015898885,-0.024229355,0.02282337,0.009971868,-0.044405688,0.039077293,0.035987582,0.011571801,0.03321467,0.033609945,0.046108287,-0.026559336,0.0037005637,0.04902564,0.017920151,-0.026467735,-0.029681664,0.009328013,-0.031341407,-0.047838397,-0.042686164,-0.0071129417,0.008254911,0.037427515,-0.032643482,-0.041306548,0.016435195,0.05452805,-0.018211989,-0.043968704,-0.05224155,0.051888347,-0.0025662284,0.0431142,-0.002655762,-0.014398389,-0.0006439125,-0.01635685,-0.07456204,-0.020985596,-0.0016812533,0.042101126,0.017127737,0.037079267,-0.039106134,0.0458691,0.055609148,-0.0029152317,0.015192064,-0.011313633,0.019618487,-0.024414875,0.033829983,-0.010079088,0.056639094,0.00742499,0.026462106,0.045832265,-0.02568076,-0.09318382,0.058451053,-0.026369108,0.033250846,-0.014831529,-0.015843006,0.0384136,-0.027047236,-0.025273563,0.012812374,-0.0010338307,0.0007074642,-0.009143812,-0.024731876,0.03945467,-0.010843566,-0.049866688,-0.030676404,0.015305894,0.03743855,0.007094798,0.0022643202,0.0018997248,0.0005863003,0.035957336,0.059807125,0.05388691,0.033070147,0.011903905,-0.009875282,-0.0009560738,-0.027165713,-0.04437671,0.000828642,-0.012317944,-0.077644594,0.020108307,0.0064867614,-0.05232407,-0.025180556,-0.01679601,-0.03098493,-0.014400711,-0.011082753,-0.032823704,0.00149884,-0.0085487785,-0.011951466,0.03781323,-0.01792037,0.008714875,0.0196052,-0.03118621,0.013751331,0.05630808,0.0064170035,0.0013920994,-0.03632844,0.014601222,0.04907217,-0.022570506,-0.0062445775,0.009529568,0.027923563,0.05264241,0.08012666,0.051462393,0.07736115,-0.0484329,0.06486356,0.053861447,0.06120913,0.010447296,0.030543933,-0.042886138,-0.02601313,-0.0114029795,-0.02137224,-0.034784496,-0.0047036977,-0.03382058,0.027598657,0.034985445,-0.019929549,-0.004874724,-0.012607225,0.02755725,-0.042965848,-0.080446556,0.027108165,0.024077129,-0.032652948,0.010934669,0.019904744,0.0498892,-0.0002134603,0.034488708,0.032673895,0.01985235,0.021802606,-0.037545133,-0.030096356,0.00925848,-0.0055911336,0.0126874875,0.021595916,-0.0032138296,-0.004829276,0.06309992,0.015486644,0.004487844,-0.002829255,-0.043559615,0.033952843,-0.0029038812,-0.023296388,0.0036961008,-0.0444825,0.028636094,0.03228749,0.05639628,0.05533466,-0.041906096,-0.05115243,0.006935234,0.0042972877,0.011921554,0.025242483,-0.026408264,0.0082219355,0.021673879,-0.011320701,0.0068616928,0.04925563,0.018372063,0.06080965,-0.029670974,-0.065885805,-0.050215688,-0.01361787,0.015009283,0.007238571,0.015111751,0.0177326,0.028298076,0.007562151,-0.0040617054,0.0025016908,-0.02342414,-0.036454767,-0.008729094,0.033871185,-0.0035965154,0.040894255,0.03552934,-0.01854354,-0.0010320004,-0.031773932,-0.004808017,0.0019869248,0.0077462695,0.0117100505,0.11607221,0.026151447,-0.013355661,0.022639371,-0.06039764,0.0048942813,0.033480555,-0.08684317,0.052148607,0.015502416,0.016753364,0.040950615,-0.0053740554,-0.030203521,-0.0007185509,0.046671666,-0.05598357,0.016118424,0.04763202,-0.014382745,-0.006530432,-0.016576154,0.03266899,-0.0006971698,-0.068549275,-0.029001467,-0.0058357343,0.040891986,0.012729272,0.10222627,0.006908053,0.03234695,0.053377107,0.018793685,0.013629254,-0.020999575,0.038476165,0.06136932,0.037464444,0.023316639,-0.0025133262,-0.04575121,-0.04493322,0.011807214,0.03391245,0.01632936,0.086005345,0.04467678,0.045718778,-0.008461903,0.09288874,-0.04304513,-0.084219456,0.014006107,-0.024363987,0.012795754,0.008391765,-0.028282566,-0.008363506,0.04411136,-0.0398053,0.054418832,-0.02294369,0.00982587,-0.012812923,-0.009390135,0.047310296,-0.041348174,0.03551411,0.025453607,-0.026658975,0.010571191,0.04444822,0.019431088,-0.00828318,0.01065223,-0.0019606086,-0.05493782,0.03768232,0.0844653,-0.009454545,-0.01277151,0.01129128,0.095785595,-0.035351966,-0.030214993,0.014301979,0.011315618,-0.0021597228,-0.03243225,0.0052196067,-0.019422911,-0.032823604,-0.04881289,-0.042430986,0.009207892,0.002196573,0.020572923,-0.0016795762,-0.010321711,0.024097778,-0.0070602447,-0.045423012,0.020150395,0.0039346186,-0.06222047,0.025579786,0.0048766644,-0.028013974,9.115117e-05,-0.018676968,0.0086897435,-0.005218466,-0.037232045,-0.06975234,0.023585143,-0.044856075,0.00087592006,-0.053182732,0.053208757,-0.020913132,0.0015001926,0.0022653143,-0.0064760842,-0.038694307,-0.07940829,-0.0044762664,0.04908125,0.009604141,0.03226636,0.049706593,0.0021994861,-0.0071464065,-0.007495311,-0.005735063,-0.06144309,-0.032843374,0.032733485,0.008190816,-0.009462306,-0.023058074,0.029010525,0.07837068,0.03966375,-0.020552993,-0.059908807,-0.03667856,-0.012567879,-0.011551575,-0.020264056,0.085207425,-0.01116049,-0.015509576,-0.03941739,0.0023768735,-0.03834454,0.03299483,-0.011878311,0.0419108,-0.041895118,-0.033807687,0.0011067853,-0.04080351,-0.022445979,0.052653685,-0.019011024,-0.03719684,0.013578898,0.016203243,-0.037598755,-0.0004852994,0.022963773,-0.02073761,-0.03447251,0.0041116932,-0.046940096,0.01618093,0.0008118095,0.053208612,-0.047351286,-0.005799712,0.01962513,-0.038395848,-0.016005458,0.04996178,0.04765145,0.028083278,0.028757537,-0.022328045,0.02615481,0.040167343,0.04344254,0.015505055,-0.022613976,0.06693603,-0.031442747,-0.00328589,-0.08438526,0.005745645,0.00601855,-0.011506307,-0.007729463,-0.032609556,-0.018975588,-0.051326137,0.027360622,-0.010729497,0.047150332,0.043395568,-0.02627886,-0.000636019,-0.037037905,0.023571946,0.046965275,-0.048476867,-0.018761745,-0.0041264193,-0.041566085,0.05415766,0.019793468,-0.07710056,0.008651156,-0.047151666,0.06594074,0.025724908,0.024664305,-0.04497886,-0.032492653,-0.03841233,-0.03900852,0.008971645,0.020124046,-0.05388466,-0.0139573235,0.004465196,-0.031049073,-0.01683702,0.07998719,-0.031321213,-0.033169873,0.030916346,-0.015578618,0.024056926,0.05106802,0.027467275,-0.03361896,0.002847894,0.01846614,-0.08104317,0.049392376,0.0062379516,-0.058466982,0.003192187,0.042029675,0.013607016,0.032199726,0.020849343,-0.007337666,-0.023930257,0.004607106,0.038694203,-0.005530623,0.06123146,0.01277227,-0.036123116,0.019303877,-0.008910603,0.00898781,-0.053350456
conjunctivitis,-0.036122378,0.049618248,0.041354,-0.087304294,0.02207501,-0.0065867407,-0.002280656,-0.045845885,-0.0033168797,-0.0047926945,-0.013445029,-0.011009579,0.012074693,0.012191687,0.02359757,-0.028831085,0.031863634,-0.006627411,-0.078493975,0.03202863,0.0009399309,0.013742971,-0.027739,0.004765131,-0.022776036,0.017017936,0.0013824949,0.055228725,0.020478483,-0.042690095,-0.009278713,0.0136136105,0.020182831,-0.0006339921,0.03906185,0.017587993,0.03212282,0.022443289,-0.022005329,-0.066073574,-0.025048224,0.009532214,-0.0029659758,0.026890343,-0.05779446,0.07058396,0.06257342,0.051133256,0.014530797,0.018283859,-0.012768335,0.010829868,-0.028731212,0.05286408,-0.052675437,-0.046770833,-0.06647366,0.0023789546,0.059498716,0.028786888,-0.031541947,0.012464632,0.03272498,-0.057480834,0.00030609683,-0.016422726,-0.0436475,-0.03427448,-0.050529514,0.0075879246,0.011633426,-0.012442011,-0.05359619,-0.054753114,0.018904343,0.024483152,0.022374235,-0.011346187,0.058469743,-0.021626154,-0.02044007,0.03086883,0.07793045,0.119212255,0.014295014,-0.020191163,-0.0015443999,0.019607183,-0.032369457,0.040429797,0.044118382,0.019841488,-0.08743586,-0.046448734,-0.041600604,-0.093228504,-0.08418833,-0.05399662,0.021740224,-0.021622567,0.04406677,-0.010534721,-0.011120612,-0.042957816,0.053093508,0.118692614,0.038797,-0.013231668,-0.07447588,0.049070124,-0.014556606,0.0021835812,0.045048125,0.0819204,-0.03965196,0.036945023,-0.014564209,0.018960346,-0.048858747,-0.015179417,0.002952321,0.024445161,-0.032701857,-0.016778994,0.04022627,-0.0136389695,-0.001318335,-0.0073591108,0.081029944,0.0077961944,-0.060698,-0.041196425,0.0042158486,0.06244484,0.026840793,-0.015159048,0.03480212,0.012507804,-0.0013864151,0.027699482,0.039918594,-0.02985225,-0.024084006,0.030061048,-0.014477343,-0.022277161,0.029335923,-0.019319735,0.02673456,0.030340148,-0.06452449,0.022580931,0.06711426,-0.09452774,0.03533964,0.025199309,-0.0039173407,0.023117604,0.048379183,-0.031834558,0.0021249177,-0.024829064,-0.025503058,0.084534034,0.0065450897,0.012951893,-0.046826508,0.005751963,-0.0038425461,-0.013193332,-0.013999808,-0.07417318,0.0075597824,-0.081850804,-0.043401595,0.034542613,0.015750566,-0.030365512,-0.020203972,-0.036532454,0.019394642,-0.007256842,0.011967667,-0.081036106,0.013290707,0.07975953,0.023476385,-0.0073713874,-0.023983998,-0.00093137834,-0.025703207,0.043862306,-0.00362666,0.03321111,-0.06859369,0.0012714191,0.005227969,-0.030897135,-0.024023091,0.033228327,0.035231102,0.026457157,-0.0038879144,-0.044167675,-0.02203706,-0.004651585,-0.057099782,-0.011492935,0.041456603,0.047966413,-0.046987697,-0.0072405925,-0.053352803,-0.02418423,0.031862725,0.05524331,0.0017353311,-0.08413847,-0.051363036,-0.05997727,0.0019456508,0.024306778,0.06970764,0.0014560089,-0.006041743,0.024146734,-0.012250741,0.0022606535,0.053843006,-0.025090324,0.025419611,-0.03770934,-0.020958256,-0.016600892,-0.005153229,0.04486705,0.047976393,-0.056828376,0.044363696,0.0464869,-0.023142027,-0.03150072,0.056604814,-0.059036538,0.033728216,-0.02904334,0.07994616,0.029599885,0.0064109666,-0.10076444,0.0074610305,0.005585738,-0.023156602,0.036501635,-0.04153849,0.00058655976,0.007841105,-0.06498022,-0.0024395897,-0.03259248,0.051008645,-0.024505591,-0.040906616,-0.01563206,-0.047507476,-0.080163166,-0.0027706602,-0.02020939,0.048283897,-0.0048291916,-0.012781401,0.009510531,-0.05317522,0.020200191,-0.051114157,0.030466598,0.027469456,-0.026672931,-0.049991585,-0.07052034,0.042236395,0.012687148,-0.021114973,0.00065894093,-0.028941095,0.01108569,0.015210235,-0.012857611,-0.011496958,-0.032887373,0.015680993,-0.025862874,0.0031605097,-0.07831959,-0.0365621,0.009000392,-0.017894816,0.017849347,0.03461933,0.013069653,0.0070702573,-0.019174406,-0.039300904,-0.008266615,-0.029971678,0.07049429,-0.0062062894,0.007170678,-0.08145629,0.037350066,-0.011131603,-0.03981084,-0.01229492,-0.039092045,-0.03674547,-0.016662708,-0.03365685,-0.02288635,-0.018639196,0.0424994,0.028592054,0.0016670868,-0.040620953,0.0154691795,0.026858957,-0.049739175,0.031463336,-0.042274285,0.028416418,0.0027406695,0.045127906,-0.027491143,0.033832412,-0.057624023,0.012870799,0.02738385,-0.05595001,0.04413545,0.014165471,-0.010366128,0.021680523,-0.00648237,0.037417486,0.030422151,0.009496169,-0.04862489,0.015891649,0.021298246,0.006962182,-0.026735405,-0.016867077,0.026775151,-0.030644918,-0.0088108005,0.011048975,0.035404693,0.043081533,-0.03598975,0.031622607,-0.038762543,-0.0533798,-0.01861717,-0.022061301,0.0208533,0.073163785,0.01790684,-0.008250828,0.0171024,0.01403241,0.06352017,-0.0017356859,0.00084974855,-0.031151209,-0.021558156,-0.017587004,-0.052153967,0.014922643,-0.0022516157,-0.041897308,-0.01725544,0.007907131,-0.026854169,-0.016460022,0.019111386,0.0009889437,0.06440912,-0.08443698,-0.054826308,-0.009468824,-0.0046174927,0.013636196,0.046836663,-0.041208066,0.018987611,-0.032082237,0.04494881,0.037368592,0.0067977603,0.014513685,0.0075634737,0.028426575,0.039362196,0.060483288,0.030440686,0.038383033,-0.012618346,0.05066055,0.032085363,0.02857023,0.023235468,0.011225714,-0.021360701,-0.01220812,0.009626137,-0.064140305,-0.00344862,0.032119665,-0.035325468,-0.002398776,0.009262497,-0.0052190344,0.036152944,0.019477693,-0.04672433,0.01986923,-0.041411027,0.0039258217,0.0016877353,-0.010855427,0.005712742,0.039385933,0.02175111,-0.025336942,0.0011128213,0.047701366,0.011936382,-0.007598897,-0.042168427,-0.041176736,0.04012046,-0.0077570328,-0.009494434,0.042174716,-0.0044639264,-0.021542488,0.024120286,0.058740623,-0.043396242,-0.0060426197,0.0029847648,-0.0063759596,0.0038519038,0.018530253,-0.0031930646,-0.054267954,-0.015981095,0.037595652,0.054289274,-0.0066632973,-0.008678867,-0.029530548,-0.0148633495,0.0698208,0.016365673,-0.0057737455,0.025585555,-0.004555292,0.009201119,0.043332573,-0.034280654,0.038457487,0.034484763,0.008916813,0.040941436,-0.044668425,0.019272558,-0.056819607,0.06821533,-0.069965705,-0.010936095,0.04369531,0.028106393,-0.02247755,0.011677848,0.022623768,-0.027961269,-0.01434703,0.032402117,0.00408402,-0.053881723,0.035221756,0.050090596,-0.009809895,-0.047541693,-0.024904544,-0.044747613,-0.0076253572,-0.011586624,-0.015388884,0.043225702,0.03223857,-0.0045749783,-0.010209733,-0.049057614,-0.01205078,-0.0026320445,0.0032405825,0.0011755702,0.017063823,0.058133256,0.031145155,0.012270101,0.033059847,0.030001957,0.026641391,-0.005878865,0.05473263,-0.011220473,-0.01566082,-0.00020379171,-0.032563947,0.019505393,0.022552302,-0.07687801,0.017495887,0.008472491,-0.032035407,0.0013337674,0.06953472,-0.012132957,-0.03174364,-0.0007329575,0.045118954,0.033224747,-0.015402223,0.043196224,-0.031720366,-0.019152764,0.041158628,-0.002842562,0.022413298,0.027960543,0.006212139,0.010057069,-0.01371193,0.034471188,0.029207725,0.056922153,0.016473299,0.05156258,-0.022169875,-0.04629294,-0.01853533,-0.024540452,-0.009878876,0.014875927,0.054135717,-0.046289753,0.039939165,-0.043316707,0.0012952099,-0.051002428,0.03825551,0.023657717,0.0071531096,0.0034830542,0.00019388818,0.019384801,-0.013444257,-0.042381767,0.02297502,0.008491884,0.016663508,-0.02987617,0.06540505,0.015080427,-0.020591829,-0.026532914,0.063438274,0.015202748,-0.034979425,0.0022269334,0.045336913,-0.013524495,0.009356871,-0.023074972,0.010637336,-0.018431656,-0.01149319,-0.01564868,0.023687476,-0.03704678,0.008432036,-0.10535608,-0.0006347971,0.040720478,0.025232187,0.027014378,0.03575061,0.019927613,-0.08637108,-0.006458829,0.054709446,-0.022552041,-0.005896069,0.027940257,0.035445992,0.025680572,0.012370883,-0.03811946,0.027835809,0.032397635,-0.047515985,-0.01462214,-0.008323573,-0.004487027,-0.042161886,-0.046315897,0.011539577,0.04451531,-0.048290472,0.028102458,0.027047224,-0.03941978,-0.10324717,0.009754427,0.0006981391,0.012375726,-0.009981277,-0.007438828,-0.022441357,0.01737191,-0.021233952,0.056769826,-0.08324261,0.034176473,-0.0077794525,0.016840326,0.01906384,-0.0071149776,0.00814374,0.06328541,0.007289293,0.018789066,-0.064268276,0.021417456,-0.01966717,-0.013393043,-0.07581171,0.015945578,0.033313718,-0.020389687,-0.015676199,0.020897355,-0.034111146,0.022084119,-0.049061164,-0.025106372,0.00054265413,-0.036534037,-0.07778058,-0.0035154864,-0.053945914,0.028029904,-0.0110580865,0.0272296,-0.03758889,0.015068779,0.034832526,0.0031079608,-0.033139788,0.0076367618,-0.002872182,0.029263524,-0.018028473,-0.046356782,0.00974989,-0.0022691954,-0.028391736,0.038984746,0.024468293,-0.024554348,0.028263468,0.071164034,0.004948791,0.02737878,0.08017756,0.024188256,-0.035964064,-0.029052602,0.03335796,-0.00957571,-0.026591236,0.036579,-0.043136604,0.019456789,-0.0041626026,0.031917095,0.07912948,0.028352875,0.0074823354,-0.018601496,-0.07348687,0.017252728,0.048906073,0.0026504823,0.09602963,0.0093416255,-0.08532517,-0.051817805,-0.027959114,0.031021466,0.043603964,0.026179777,0.026763197,-0.012892498,0.04662858,0.06696879,0.0028531475,-0.081490785,0.03406707,-0.079073556,0.0005487786,0.029200157,0.044260178,0.00880292,-0.0704647,-0.037217654,-0.007904269,0.044593185,0.014983124,0.0014368143,-0.012908276,0.012940742,-0.004868421,-0.0072186105,0.02173736,-0.028102666,-0.021393502,0.02392123,-0.017184313,-0.012674523,-0.020383561,-0.008614644,-0.02142135,-0.005826661,0.014014664,-0.029590746,-0.018438052,0.026784362,-0.0579736,0.020903049,0.07527108,0.015610433,-0.035450194,0.023669902,0.03508748,-0.041749444,0.0034353354,0.044290297,0.061918933,0.019750644,-0.03442333,0.015733397,-0.03204239,0.014494239,0.003195169,-0.044916783
maculopapular rash,-0.05318167,0.020851064,-0.038863804,-0.03888229,0.028317062,0.00462029,0.013301392,-0.012912154,0.04990804,0.023760514,0.02453822,0.036741156,0.021220915,0.054884437,0.009210058,-0.0075868997,-0.009402183,0.014712898,-0.1113981,0.03219646,-0.008495485,-0.015136733,0.027495757,-0.06840365,-0.010726174,0.07355758,-0.023143586,0.016691763,0.03287059,-0.053639673,-0.007863195,-0.046761133,0.015677353,0.03565084,0.014047512,0.068447806,0.032589596,0.0062907934,0.0025959886,-0.010128201,-0.035607003,0.038760923,-0.010247545,0.04509582,-0.038469438,-0.0041584913,0.01883903,0.011883724,0.028670006,0.083568096,-0.006593818,0.044634443,-0.0016907554,0.016385954,0.028671643,-0.028311236,-0.080987856,-0.029012298,0.070468456,0.04305249,-0.0006752111,-0.009900741,0.0045758444,-0.051616,0.020232907,-0.066870734,-0.05134861,-0.008379604,-0.028856615,0.07422122,-0.027820824,0.023216235,0.0134384995,-0.033484172,-0.021531373,0.04448624,0.027417721,-0.029406495,0.0040732534,0.024685107,-0.013886727,0.033742607,0.049460556,0.08161922,0.05861208,-0.030281896,-0.024224082,-0.061051022,0.014271603,-0.045412634,0.12500155,-0.024482852,-0.060004838,-0.026272008,-0.045320243,-0.050775748,-0.06704174,-0.06294605,0.037029702,-0.005919994,0.024501327,-0.036614705,0.0045352136,0.007233861,0.06672603,0.032717373,-0.0062859636,-0.059340835,-0.0154330395,0.015100598,-0.013983576,-0.011375024,0.04469843,-0.006943319,0.018939868,-0.009619683,0.030816074,-0.02429404,0.009585777,-0.023901341,0.023119047,0.042224247,-0.011031005,0.0057516745,-0.024411613,-0.028850427,-0.003981748,0.022408102,0.010621327,0.016456688,-0.016592586,0.0036110894,0.029456476,0.001160277,0.043102752,0.009314518,0.055026308,0.020991199,0.02762019,0.0672104,0.03644712,-0.030223118,0.005048353,-0.003076074,-0.0055820956,-0.025076713,0.03970284,0.02275567,0.035005737,-0.06854411,-0.024104977,0.028048823,0.005331784,-0.0481979,-0.009143881,-0.037840273,-0.010855405,-0.02389769,-0.003607127,-0.06750429,-0.042658776,-0.038458966,0.020262115,0.018324804,-0.02663349,0.061485764,-0.0029962666,-0.06378031,0.0033538837,-0.09653917,0.0473747,-0.035664838,0.020934185,-0.07769907,-0.0022998918,0.035236087,0.026494924,-0.006348806,-0.061144013,-0.046718046,0.08846019,-0.03766181,-0.017967544,-0.03199089,-0.033558574,0.05461347,-0.026580693,-0.015433223,0.084277175,-0.014466032,0.020428456,0.049228605,0.0070083416,0.030146588,-0.06633814,0.008211768,0.030714147,-0.027898537,-0.0958375,0.031576034,0.044153657,0.027858717,0.017147083,-0.08285252,-0.039819475,0.031678878,0.034698974,-0.004873157,-0.038478985,0.0015400883,-0.04908401,-0.038116217,-0.061865784,-0.019019065,-0.016108027,-0.0025906097,0.031418033,0.00773994,-0.028893009,-0.035490267,0.0034028913,-0.0030658394,0.02979562,0.032476783,-0.0017763868,0.011971477,-0.09441886,-0.052304305,0.10518776,0.03904743,0.0013962538,0.006026509,-0.043056533,-0.025321221,-0.036036357,0.039440453,0.015284732,-0.06632031,0.033544447,0.039154213,-0.043393336,0.05955709,0.034748353,0.036132064,0.06845057,-0.058400027,0.08183907,0.019263599,0.022833124,0.021525212,-0.021432158,0.02144576,0.00011546674,0.056131385,-0.008280472,-0.0024825705,0.033266183,-0.0015944605,-0.039006956,-0.019631155,-0.013176896,-0.0018297835,-0.01026369,-0.09091625,-0.014812649,-0.087427124,0.0007691978,0.034007676,0.039252806,-0.0087660495,0.0044570877,0.017633526,-0.0001887943,-0.0060234857,-0.042136893,0.011771536,0.05078088,0.018703293,-0.031554718,-0.03943115,-0.021092836,0.0020647473,-0.044104498,-0.040975463,0.053504955,0.04908821,-0.03391407,0.00022400849,-0.013974742,-0.0020071198,-0.013104521,0.046122167,-0.004793278,-0.02868058,-0.026165845,0.037645295,-0.032371376,-0.001352632,-0.021341795,-0.033249535,-0.0026096231,0.054527126,-0.05173054,-0.025371177,-0.011084849,0.041098144,-0.036138143,-0.04346628,-0.0145665025,0.087068364,0.011587052,0.026208049,0.0054363403,0.013060257,-0.04617748,-0.013861225,-0.07732177,0.0134873735,-0.0002238219,0.0016040934,0.0075685265,0.017339274,-0.057074808,0.041654624,0.0029568367,0.02091364,0.034458812,-0.014189751,0.032664347,-0.015937483,0.03575655,-0.024356667,0.01091914,-0.0032268513,-0.015587903,0.02235742,-0.022609383,0.017233726,0.05065634,-0.02007453,0.008565416,-0.038525164,0.006273662,-0.0031752137,0.017491138,-0.07758838,0.015927438,-0.027738642,-0.010387517,-0.056455217,0.0037195696,0.036780376,0.020136984,-0.030582266,-0.0013883724,0.031443298,0.018644415,-0.0034033235,0.0032020386,-0.05913443,-0.062009607,0.0014206395,0.004625709,0.01219318,0.028247485,0.014930994,0.02802896,0.046596605,0.03848163,-0.014439029,-0.014523113,0.012721028,-0.04335864,0.03876486,-0.0037390809,-0.01834775,0.013457904,-0.038591072,-0.0077366903,-0.031013012,-0.013411685,-0.029132824,-0.031004345,-0.00028681845,0.030361379,0.06377677,-0.019885277,-0.06505481,-0.037481345,-0.007606176,0.009507097,0.02765577,-0.039924007,0.00088728406,0.032008138,0.025389485,0.010230793,0.030688675,0.03336211,0.038145732,0.06522954,-0.016880687,0.030622778,0.028379614,0.00873725,-0.05143368,0.068358384,0.06358948,0.034334447,0.007971146,0.08297831,-0.021460334,-0.07042311,-0.0010360702,0.019490635,-0.030637762,-0.013986657,-0.035052996,0.036690574,0.007540093,-0.0066360245,0.01819671,0.010105514,-0.021480072,-0.053735483,-0.039589133,-0.01006397,0.008153061,-0.030515732,0.051190987,0.0066687623,0.055609893,-0.013857708,0.01151204,0.06409422,0.005798821,0.002849567,-0.036486812,-0.033218686,0.028391726,-0.05397711,0.008805066,-0.025867272,0.038555585,-0.03478903,0.04687907,0.014139058,-0.01112759,0.016746083,-0.04697709,-0.0060873455,-0.05319006,0.020798266,-0.069693595,-0.0050473907,0.017652145,-0.011748144,0.10092854,0.039809443,0.008634044,-0.047083486,-0.012887612,0.012745841,0.029737743,-0.041286025,-0.031967107,-0.07036224,0.007306421,-0.044979542,0.017080296,0.042404342,0.00260053,0.017016176,0.031229468,-0.030161204,-0.034139976,-0.0034378713,0.039486635,0.042111482,-0.016875688,0.032334678,0.024370926,0.033489875,0.015499162,-0.010305811,-0.0018056789,-0.003581637,0.022068132,0.010138537,-0.019731017,0.034558292,0.05436068,0.016185807,-0.0120920995,-0.04794253,0.008270739,0.0026685626,-0.041808587,-0.01004073,0.046153545,0.060507853,-0.022371855,0.009120028,-0.102108136,-0.0014244623,0.0104371235,-0.03534631,-0.0069228127,-0.022902194,0.01571702,0.0061857793,0.004739854,-0.015338642,0.08345617,-0.02138509,-0.020185826,-0.044799957,0.03129321,0.026084332,-0.016256431,0.039069057,-0.011611323,0.007904281,-0.043492496,0.04493904,-0.004742319,-0.055582926,-0.011503061,0.071669176,-0.02992076,-0.021959448,0.021821355,-0.01815511,0.011064841,0.0019987724,0.062635005,-0.030756587,0.039488353,0.008430409,0.0060657216,-0.01425917,-0.013696448,0.03256869,0.062521376,0.015385882,-0.005306522,0.069979005,0.040957693,-0.021877635,0.035137255,-0.0121420035,-0.0071541653,0.010705707,-0.032820944,-0.0039456836,-0.033011585,0.07963154,0.015612006,0.037663884,-0.07641615,0.05786798,-0.028576806,0.0187847,0.046288297,0.009244867,0.033978656,-0.040816512,0.036920935,-0.016651688,0.0029953762,-0.0023846396,0.055740617,-0.033926558,0.026132353,0.023130624,-0.003216222,-0.0560061,0.051922593,0.038451087,-0.008776586,-0.014553964,0.054932818,0.080909304,0.007367939,-0.074669115,-0.0036583517,0.004652076,0.012628918,-0.06958661,-0.045400295,-0.026181875,-0.0076909135,-0.012342112,-0.0735587,-0.0058495495,0.0038026744,-0.004921356,0.0006504583,-0.041146047,0.029769314,-0.03962636,-0.06291831,0.025939645,-0.0261559,-0.0820264,0.028566057,-0.011309305,-0.050840627,0.013916906,-0.042300444,-0.0038961605,0.0099598495,-0.0036321199,-0.026876653,0.0052314494,-0.045939565,-0.026486704,-0.050910477,0.04314152,-0.05146739,-0.020101398,0.0042423764,0.005911045,-0.030039469,-0.068728395,0.035919778,0.0035395864,0.0012191905,-0.05213088,0.018196886,-0.054223508,-0.029959043,-0.00029322406,-0.008554939,-0.049664922,0.010126303,-0.03880085,-0.0019222549,-0.0017025776,-0.030334515,0.019787958,0.03233149,0.018455217,-0.009353092,-0.04790222,0.0135195255,-0.018077187,-0.023336256,-0.038565375,0.017570745,0.000604273,-0.006362991,-0.02361,0.056959815,0.002672637,-0.017052218,-0.08377021,-0.029886689,-0.0011246804,0.017585803,-0.030868314,-0.019356757,-0.03308713,0.051716547,-0.0071687605,-0.026603708,0.013940551,0.046240654,0.017990215,0.019373396,0.05055517,0.026681455,-0.040819794,0.026358703,0.004160463,-0.005284341,0.039116237,0.04983514,-0.04700748,-0.0035468738,0.0154694915,-0.0045788563,0.0047117732,0.008371711,0.0011297276,0.0056583714,-0.01078945,-0.01647791,-0.053212546,0.001549208,0.06748471,-0.011904129,-0.04580332,0.014019437,-0.034767676,0.024155218,0.009406218,0.013094728,-0.0026809035,0.02474949,-0.0279261,-0.055561274,0.011760566,-0.015788041,0.05353337,0.01032623,0.007931885,-0.0063511357,-0.035687074,-0.013616446,-0.023631053,0.051061798,0.06163213,-0.04886595,0.008187366,-0.0009304579,0.041836508,0.035290908,-0.0074191266,-0.037241872,0.006175766,-0.053081326,0.059218485,-0.007958549,0.029799646,0.0153327705,-0.044664003,-0.011404334,-0.006071454,0.05893012,-0.017318787,-0.00017161631,-0.0027127815,0.006286987,-0.0015597413,0.0071212878,0.053004056,-0.078275576,-0.041500855,0.030286519,0.013531479,0.0055399626,0.013001217,0.03556814,-0.058021344,0.017689569,-0.0072248685,-0.09118606,0.029598024,-0.020041319,-0.07411693,-0.013039596,-0.008506258,0.045992155,-0.0013283177,0.02141397,-0.049409166,-0.0046505183,0.007926853,-0.0024109844,0.023997046,0.022716198,-0.03873971,-0.052330207,-0.013037538,0.05060224,0.015979743,-0.05920037
diffuse erythematous rash,0.010738813,-0.017137177,-0.06609781,-0.006133075,-0.01112896,0.034499995,0.028057067,-0.052367825,0.036488198,0.05804288,0.03328519,0.053336795,-0.039410964,0.058982108,0.0061503183,-0.07808474,0.013800524,0.0044131973,-0.07748292,-0.009191809,0.0008326955,0.010869447,0.07059505,-0.076675355,-0.01835991,0.037885003,0.028996749,-0.03393032,-0.011056571,-0.022953615,-0.008189739,-0.0035128652,0.019529073,0.11108657,-0.0017190287,0.043947764,0.009334325,-0.03172765,-0.037913382,-0.0027703624,-0.022211464,-0.0051827924,0.041538533,-0.019175865,-0.01821829,-0.024238842,0.04967154,-0.018388325,0.030257963,0.024913317,-0.012684291,-0.0017041004,-0.051436663,-0.004154309,0.020451182,-0.022707151,-0.04183387,-0.0029637052,0.054150056,0.046264537,0.00074078294,0.03358712,0.033416964,-0.047741875,0.073302284,-0.07598156,-0.022284774,0.050928194,-0.0068412097,0.014346485,0.014690357,-0.03848424,-0.0078177,-0.042521343,0.0006050662,0.06877841,0.0036594535,-0.049359877,-0.0218002,0.0062064896,-0.0060435524,0.04188047,0.02765848,0.08017204,0.030721603,-0.014287484,0.0024402116,-0.045789767,-0.0216767,-0.029023405,0.126721,0.012311927,-0.01094223,0.033288863,-0.022687182,-0.009930307,-0.082371674,-0.12047823,0.06263415,0.059941094,0.032701597,-0.044171225,-0.003339508,0.00038003002,0.08056271,0.053132232,-0.0081215985,-0.024709351,-0.0038307393,0.02806242,0.0061013787,-0.02992071,0.025058268,0.025177313,0.00029563362,0.022762118,0.008509402,-0.022670094,0.025649624,-0.0058218283,-0.0068692723,0.012832278,-0.11439222,0.03081434,0.03397576,0.004044356,0.059167005,-0.015538784,0.023831002,-0.0058355103,-0.047467403,-0.0070387865,0.04739935,0.019602003,0.034352414,-0.0109635275,0.060221512,0.06942458,0.054366376,-0.011637504,0.01839169,-0.037186295,0.012443928,0.0028091832,-0.04797397,-0.063204095,-0.048772067,0.015311805,-0.008305095,-0.050910715,-0.0043738442,0.022569558,0.005005656,-0.03327601,0.022484142,-0.01642554,0.0542446,-0.028693877,0.054664496,-0.012125688,-0.01123207,0.0055888426,0.014201357,-0.0004979893,0.009268668,-0.011555369,0.0030331798,-0.00891402,0.06772229,-0.0610189,0.054489598,-0.029031027,-0.043377,-0.13473415,0.0031326057,-0.04434492,-0.024798537,-0.011236314,-0.060704593,-0.033670682,0.084680334,0.025771096,-0.049457274,-0.027595056,0.0006296179,0.051782157,-0.05924176,-0.028113553,0.08035248,-0.028091958,0.01686622,0.067156106,-0.01602162,0.024008753,-0.047991294,0.0017569679,0.043360118,-0.024992784,-0.07708345,0.017670749,0.023904542,0.04052618,0.0021262236,-0.031769607,-0.023944797,0.0063835187,0.016138356,-0.009641337,-0.062918745,-0.012338131,0.01129437,-0.024795517,-0.053507417,-0.027154334,0.0055236896,0.011873438,-0.006113551,-0.011420221,0.010447675,0.021310361,0.01443983,-0.022819947,0.042075492,0.026278056,-0.002203834,0.0064490302,-0.05948842,-0.07265617,0.024369247,-0.02862025,-0.023767427,0.020592796,-0.058529764,0.0049511013,-0.033998102,0.010010531,0.033704244,-0.03370678,0.05658946,-0.020650165,-0.05902824,0.043320734,0.040922124,0.02657838,0.07896853,-0.06429542,0.035611168,0.061694376,-0.025382703,0.0011487715,-0.06761938,-0.010764857,-0.0071736462,0.011770636,0.009374796,0.014793557,-0.0005052159,-0.013886436,-0.031004194,0.015022243,-0.036229573,-0.022643447,0.0065339073,-0.06283473,-0.014377319,-0.07838332,0.019236373,-0.002392406,0.07912661,-0.056550197,0.010006291,0.015606102,-0.033135653,-0.0029146667,-0.02612105,0.026709672,0.020488305,0.0049085706,-0.02525636,-0.03675488,0.030781638,-0.013203222,-0.016867708,-0.002852352,0.035463277,0.047829166,-0.030937828,0.03766109,0.0059353253,-0.0037955828,-0.016352875,0.052258607,-0.009461197,0.0024706754,-0.008803165,0.01754677,-0.035890084,0.02356771,0.013805597,-0.0069784997,0.0069907308,0.021854347,-0.028144687,-0.0192236,0.0026210796,0.05097362,-0.04102974,-0.03395615,-0.075148694,0.017961258,0.025077958,0.039780412,-0.038675245,-0.0042206408,-0.024490125,0.0017436659,-0.08150014,-0.039512537,-0.014373882,0.020762801,-0.028732186,0.03382158,-0.0043707993,0.038232382,0.03462655,0.017083053,0.02826523,0.019264756,0.04692228,0.005918933,0.09089323,0.009772575,0.018291416,-0.004546444,-0.003674249,-0.021645065,0.008376452,-0.03958968,0.04906,0.015459292,0.063352905,-0.03859301,0.038074937,0.020585353,-0.0020698798,-0.06703739,0.011756578,0.057796292,-0.030396169,-0.03651113,-0.019794041,0.030910471,0.01130854,-0.04228391,-0.053694136,-0.013884059,0.027604615,0.0016494674,-0.0028198338,-0.054043405,-0.027574053,-0.0056011965,0.00013183332,0.03847121,0.0104257325,0.050146464,0.037840784,0.016697593,-0.009378839,-0.004041949,0.018380899,0.026032949,-0.045682583,0.008891617,-0.010245311,-0.06224198,-0.016136516,-0.007770515,0.039651114,0.004564763,-0.050180607,-0.035839524,-0.057059053,-0.042911313,0.012246976,0.048273064,-0.037651468,0.004572733,0.037048616,-0.018162616,0.022199852,-0.0060312427,-0.017690301,0.023732971,0.0013471718,0.020468906,0.0062290328,-0.00867246,0.029602423,0.0022187596,0.0541761,0.030554531,0.05161302,0.023611093,0.042389557,-0.023815311,0.06278325,0.06608384,0.01651827,0.0705143,0.021100592,-0.026566304,-0.05379332,0.040086843,0.031558853,-0.04845933,-0.0002953429,0.0044212732,-0.0017769374,0.05432629,0.0011796675,0.004526242,0.009021375,0.016016535,-0.048200127,-0.095275626,0.007969481,0.011941057,0.03236123,0.0387757,0.06283897,0.08142903,-0.018445356,0.022048572,0.06474618,-0.0064859367,0.013468471,0.0065172683,0.023386933,0.009548618,-0.03875071,0.045591034,-0.022043508,0.065128826,-0.01898474,0.05844462,0.018864818,-0.051790882,0.011466625,-0.038547162,-0.031001275,-0.052126065,0.026853306,-0.049673487,-0.024038091,0.018617796,0.019866077,0.04144065,0.06435675,0.001499313,-0.044718485,-0.0029571438,0.030646354,0.011480811,0.01669016,-0.047930814,-0.024453899,0.006014037,0.02064986,-0.014073446,0.06094381,0.0025614968,0.025515776,-0.009712052,-0.06545128,-0.020043286,0.011535404,0.044330243,0.057025548,0.020367444,0.024168866,0.022128144,0.04481301,0.0031410207,0.040062696,0.014177608,-0.015111949,0.011335931,-0.0026962196,-0.052165855,0.05428354,0.03886091,-0.01730168,-0.016025618,0.020612884,-0.029827638,-0.013373486,0.000112949616,-0.0053464677,0.094374105,0.021929566,-0.019112641,-0.002729389,-0.022060398,-0.01585812,0.014102342,-0.013256808,-0.0022701616,-0.0018080035,0.05560296,0.037252706,-0.00044063423,-0.009858603,0.046087284,0.0039687813,0.012340591,-0.038394798,0.0505319,-0.009101619,-0.0133998925,0.05884847,0.023493815,0.06691185,-0.0784241,0.04350996,-0.026365006,-0.009992505,-0.031355433,0.05980287,-0.03898711,-0.0039474075,0.0035512582,0.007979555,0.0027147573,-0.02878413,0.07197551,0.040030777,0.050491672,0.009343944,0.03978357,-0.017647438,-0.00871641,0.027504984,0.010967809,0.003915387,0.06165606,-0.004289597,0.019767761,0.001093185,0.086803615,0.0031939277,-0.021067563,-0.045043066,-0.02565977,-0.0024424274,0.0010037026,0.05885255,0.010446404,-0.0020963342,0.0100336075,0.022740047,-0.010193211,0.037691005,0.023283415,0.03251939,0.02915336,-0.0751445,0.048480902,0.010362924,0.0006689537,-0.014356177,0.043708637,0.035386544,-0.011386434,0.029251762,0.013230366,-0.03270768,0.044258803,0.0588163,-0.035609633,-0.029914206,0.052971404,0.058721624,0.00587635,-0.012069663,-0.03903453,0.008895776,0.01811247,-0.018527748,-0.047914535,0.007733263,-0.014597448,-0.0145853115,-0.025864527,-0.030305237,0.011791273,-0.0064260103,0.0354318,-0.010217139,0.028286194,-0.025007807,-0.009670085,-0.0019998227,0.023179512,-0.07546376,0.011108626,-0.003683961,-0.086349815,0.043947756,-0.010633473,-0.026871338,0.015975745,0.006014084,0.0026547965,0.0011719394,-0.0015259016,-0.05042952,-0.038390264,0.019266823,-0.027805999,-0.016622642,-0.03609605,-0.007532345,-0.06869226,-0.11483233,0.029891448,-0.0034993587,0.018607149,0.018020222,0.043890994,-0.0145050585,0.010920891,0.037074603,0.002663924,-0.04320444,-0.001619367,-0.009739901,0.01812422,-0.0130395675,-0.054254536,0.014980353,0.072991714,0.0478864,-0.015740577,-0.021141225,0.0063390033,0.014115606,0.00067240617,-0.01962902,0.018826807,-0.017445832,-0.04051062,-0.028804448,0.032337476,-0.04999245,-0.04536301,-0.05302025,-0.021542823,0.0041398746,0.027495546,-0.03130547,-0.044158168,-0.022306904,0.019443613,-0.022233328,0.0022344664,0.019829677,0.033977266,-0.037529815,-0.023891885,0.035955783,0.02152381,-0.03212503,0.06191414,0.010559828,-0.039048556,-0.019381965,0.072929814,-0.042493988,-0.026140667,0.005316728,-0.016224815,0.017193884,0.017236982,-0.01469022,0.027958175,-0.011137527,-0.018936237,-0.0008189327,0.00092537596,0.08176882,-0.021894783,-0.058678806,0.013888598,-0.022517774,0.0064809434,0.01589267,-0.006071845,0.013642299,-0.0014216083,-0.016173476,-0.02793371,-0.021572543,-0.018780446,0.013080216,0.02486397,0.009368348,-0.01661607,-0.07195701,-0.012825076,-0.026404023,-0.02124945,0.03733654,-0.013881814,0.018383708,0.033768576,-0.016786393,0.017172217,0.019779831,-0.07458263,-0.023507085,-0.0017356158,0.051599707,0.036056954,0.014832078,-0.021050865,-0.04040723,0.01785,-0.05028806,-0.0053428593,0.029431883,0.0011493581,-0.00459291,-0.014956019,0.03684514,-0.022020591,0.060138877,-0.022611663,0.04787427,0.011189326,-0.02988092,0.005727142,0.03781237,0.041712638,-0.059016757,-0.004780473,-0.011049744,-0.06788489,0.0003291409,-0.03781565,-0.0935145,0.005999742,-0.027150668,0.016901884,-0.016424302,0.03121837,-0.008944891,-0.07735764,-0.001715994,-0.008761323,0.014524446,0.062585674,-0.02650768,-0.054159116,-0.014191551,0.015315815,0.0019449664,-0.038373806
erythema multiforme,0.010262368,-0.020852696,-0.037766285,-0.0107353,0.029760603,0.04571941,0.019306635,-0.013065588,0.026698487,0.07614147,0.03101006,0.00056834787,0.00713411,-0.008619524,-0.054584872,-0.067247406,0.017089766,-0.0052211704,-0.095015995,0.039478652,0.054540474,0.034780826,0.08160256,-0.028334485,-0.06017967,0.044341374,0.013888925,0.0060388534,0.03449469,-0.024572914,0.01880625,-0.0148344375,0.0077005527,0.057647914,0.04804804,0.075469784,0.03269671,-0.020597909,-0.01177875,-0.05071157,-0.051724378,0.0043871114,0.022555783,0.00785215,-0.076889455,0.0027073948,0.052244093,-0.028283026,0.03519623,0.013199944,0.000641318,-0.03586398,-0.03215082,-0.003815953,-0.013100287,-0.047146965,-0.051679898,-0.0050918064,0.06357151,-0.024170225,0.010481621,0.022819472,0.051502123,-0.017039154,-0.00020429394,-0.08523034,-0.060541037,0.087651744,-0.041707695,0.028486501,-0.022591854,0.0074096294,0.015803756,-0.0039434526,0.049544413,0.015067686,-0.013087471,-0.04602663,-0.009842632,0.021850524,0.00020328605,0.04870907,0.051170144,0.07753958,0.066574305,-0.017704299,0.013703456,-0.062423166,0.004653454,0.02234492,0.07904064,-0.0039903834,-0.010869139,0.052412618,-0.038298298,-0.0030276012,-0.07685321,-0.07230863,0.030297257,0.0026643442,0.025640056,-0.022928841,0.0021240176,-0.028461698,0.08213429,0.036513437,0.004348771,-0.07936143,-0.014545964,-0.0078041297,0.02553032,0.011095689,0.019905966,0.013729402,-0.018166037,0.0107308645,-0.037869655,-0.045807127,-0.025190454,0.008303429,-0.021529675,0.0027904578,-0.065715365,0.039711304,0.06617015,-0.01180205,-0.013884322,-0.041478645,0.0052528665,0.03876483,-0.025412709,0.004017529,0.036890674,0.012770071,0.031229503,0.0082544945,0.08968234,-0.008240617,0.011488871,0.052068476,0.041916408,-0.03401625,-0.003607454,-0.034247573,-0.037856933,-0.02285053,-0.018516537,0.018968008,-0.027692087,-0.045716237,-0.00961592,-0.01790004,0.025762083,-0.04172438,-0.032728188,0.012109885,0.028463822,-0.017273307,0.059953824,0.003435983,-0.017582532,0.029272841,0.008866455,0.005943385,-0.0054476787,0.005620617,0.020665068,-0.026001912,0.035041872,-0.042342044,-0.011201628,-0.04200807,-0.0076830937,-0.056869525,0.0049924874,-0.03424842,-0.023042444,0.00890368,-0.056709066,-0.015363796,0.045994207,-0.021793013,-0.018734278,-0.029531866,-0.0130553255,0.090659186,-0.050092082,0.00044756333,0.07645335,-0.020753514,-0.018514877,0.11179606,-0.015944252,0.06759867,-0.0190473,-0.0036951483,-0.024470102,0.013565973,-0.07213461,0.008756782,0.029473217,0.06823661,0.007511329,-0.0004626291,-0.013609476,0.015538258,-0.031219777,-0.05047848,-0.030053243,-0.022817781,-0.0031046628,-0.0044816034,-0.016416965,-0.05401724,-0.0048748394,-0.021930141,-0.015845316,0.0053878007,0.06324291,-0.008034012,-0.00362057,0.011219878,0.013500337,0.029226549,-0.02511548,-0.033798095,-0.08557253,-0.026427297,0.034056082,-0.055042025,-0.007183689,0.02027014,-0.06650231,0.029187424,-0.062186323,-0.012369458,0.023350658,-0.043795228,0.017514626,0.013579505,-0.06776201,0.050424777,0.048680853,0.025402494,0.05342061,-0.053485107,0.022469727,-0.0112683615,-0.011306033,-0.054222442,-0.010429432,-0.016269533,0.00266457,-0.0015551576,0.038772035,-0.04899882,0.004415878,-0.020834668,-0.018694188,-0.006154571,-0.027147785,-0.009888025,-0.036694232,-0.03754439,-0.0147298835,-0.06381562,0.0031837877,0.014376657,0.06145059,-0.018878028,-0.018540015,-0.02506076,0.010690205,-0.006918903,-0.008221277,0.025097914,0.038018193,-0.025302026,-0.0189786,-0.0043416102,-0.013718291,-0.04628963,-0.042163424,-0.027405683,0.0074224323,0.02319152,0.004218775,0.038527314,-0.019035509,-0.008448738,0.011716428,0.033384714,0.024945807,-0.015164408,-0.0074922745,-0.04877472,0.01152089,-0.035995875,-0.024206385,0.008841765,0.035989676,0.07069867,-0.018310726,-0.053190555,-0.00072259974,0.06622215,-0.026959153,0.0046310206,-0.014135662,0.099415734,-0.019419182,0.025114812,-0.028959021,-0.010119522,-0.05495092,-0.026689196,-0.07630262,0.00017171512,-0.040241364,0.034842107,-0.015524319,0.034177393,-0.059982914,0.03255944,0.08229906,-0.022438543,0.03979212,0.03485071,0.058834527,-0.04790572,0.04196,0.026369542,-0.0015068278,-0.01966409,-0.018691894,0.0024377508,-0.024339018,-0.039777435,0.050545998,-0.009569652,-0.014767983,-0.004973219,0.011145034,0.019336399,0.019889403,-0.033836644,0.023886306,0.0763527,-0.015488027,-0.015549563,-0.038812935,0.041379586,-0.027877072,-0.04307025,-0.008706241,-0.00078216783,0.051405504,-0.024628595,0.031408466,-0.03680882,-0.044364516,0.028590875,-0.0036310859,0.008540521,0.04928375,0.030644847,0.030403905,-0.005646414,0.007097721,-0.03036075,0.043420173,0.02259962,-0.005150018,0.06208246,-0.023899188,-0.058410093,-0.017625604,-0.0203622,-0.039779395,-0.062891126,-0.00017128416,-0.011482309,-0.0141826,0.020092577,-0.00089851307,0.056859482,-0.015562202,-0.0433467,0.01175627,-0.0062844367,0.034670085,0.008044066,-0.023112327,0.0027860054,-0.0038540822,0.061602738,-0.008031353,-0.009145826,0.032922007,0.023124525,0.018999875,0.01289661,0.08183848,-0.013077243,0.01997897,-0.028184026,0.079828195,0.066234075,0.013922425,0.025112774,0.07953551,-0.03983125,-0.06280691,-0.04586746,-0.034974776,-0.03243329,-0.00571925,0.0062641785,0.05547387,0.07147905,0.0125474995,-0.0005781863,0.02074415,-0.013255007,-0.0009288619,-0.04954513,-0.00870844,0.0030413296,-0.021636967,0.021887943,0.019170593,0.015657205,0.014403407,0.06468311,0.07708116,0.01439375,0.011140483,-0.0036576486,-0.017724877,0.02070616,-0.02810068,0.021993874,0.0077913785,0.04578866,-0.048633285,0.054910872,0.02949379,-0.051171258,-0.0029661276,-0.014905478,-0.019496104,-0.048421875,0.013349122,-0.07019292,-0.040409375,0.024605963,0.04478511,-0.000673801,-0.011704596,-0.002822156,-0.03730331,-0.051159814,0.045227535,-0.036735352,-0.0019293398,0.026098682,0.0055992007,0.026073523,0.00044286353,-0.033558432,0.04409983,0.014944687,0.04167943,-0.019395089,-0.057685137,-0.05788247,-0.009689391,0.057742953,0.027146515,0.011579013,-0.022953348,0.0086756665,0.042748466,-0.0030620578,-0.0075227953,-0.0007313116,-0.048351817,-0.02622427,0.029875793,-0.041041296,0.0280684,0.01360121,-0.014501637,0.015586728,-0.044380106,-0.06721807,-0.038217723,0.02193157,-0.030463232,0.051024757,0.028902853,-0.000960965,0.0053830994,-0.050980505,-0.041605864,0.03152541,-0.0069074756,-0.005070913,0.014739836,0.021796351,0.04496302,0.036747046,0.004857966,-0.03631016,0.024061918,0.02888716,-0.0421218,0.053419538,-0.023172442,-0.03153231,0.027583562,0.0036735577,0.004803539,-0.039982557,0.020434001,-0.022175524,-0.014273846,-0.006486986,0.024724733,-0.0023588368,0.015354804,0.04249374,0.035295233,-0.008569021,-0.0015302993,0.040122118,0.018954407,0.005559705,0.0009373439,0.022623334,-0.012031367,0.008844976,-0.016542306,0.0238674,0.049297187,0.03247973,0.009990964,0.03810091,0.0073505505,0.057718784,-0.0012655932,-0.042512845,-0.018793186,0.0048353006,0.011321096,-0.00042858516,0.032183263,-0.00820695,0.0013511631,-0.054753434,-0.0005184333,0.026987316,0.03226852,0.0038239094,0.03991791,0.017926486,-0.04211125,0.012656682,0.046032872,0.033794377,-0.015823355,0.03343463,0.039398316,-0.005469902,0.07334835,0.0030648257,-0.06716016,0.02905759,0.052432135,-0.08286109,-0.019681167,0.03383592,0.055120345,0.04119516,-0.047955755,-0.03438731,-0.021139262,-0.027464837,-0.031462193,-0.045878388,-0.0156152425,0.030938499,0.004267007,-0.045237795,-0.028798506,-0.03293823,0.019214543,0.014363945,-0.024213579,0.052790992,-0.028885579,-0.04106529,-0.048561484,0.039729312,-0.041536707,-0.0219866,-0.003974864,-0.04169005,-0.021194473,-0.009291543,-0.039682847,0.011047336,-0.0059790076,-0.038551744,-0.016782222,-0.057116125,-0.0046358,-0.06011616,0.04329515,0.0066863266,-0.02327578,0.029656483,0.049741123,-0.026724268,-0.12154916,0.044282395,0.018476896,-0.013923866,-0.044378683,0.053012412,-0.001716145,0.0019836249,-0.011223132,0.058799006,-0.040372483,0.045118127,-0.046988573,-0.011510569,0.011643674,-0.014109227,0.016214993,0.056062758,0.069520384,-0.019991612,-0.0551069,0.030219136,-0.013878532,-0.035395253,-0.06554911,0.012554937,-0.06606924,-0.019124992,-0.03419788,0.032947272,0.006882727,-0.012556153,-0.043526974,0.032438762,-0.017339721,-0.0032218748,-0.05059193,-0.013456837,-0.005384062,0.0455092,0.018218106,0.0103922,0.025570394,-0.015132812,-0.01885798,-0.021158606,-0.011948482,0.016490946,-0.04556168,0.026819592,-0.010395569,0.025301946,0.01945055,0.076081924,-0.061070655,0.00012484462,0.035536394,-0.04256247,0.009484289,-0.012853077,0.015856368,0.035776258,0.044243213,-0.059250783,-0.01222244,0.0001013733,0.046536606,-0.069568165,-0.07424902,0.0742476,-0.0407005,0.0013314852,0.0142591605,0.004740292,-0.0028185274,0.017528003,0.006191445,0.0033773284,-0.028731827,-0.0042450693,0.03230679,-0.004528235,0.0024305647,0.01978041,-0.06391841,-0.018793646,-0.056089915,-0.031603,0.04108989,-0.041259825,-0.004677985,0.018176971,0.009462597,-0.0025611848,0.015694138,-0.050535966,-0.012746147,-0.043836124,0.06433321,0.05084499,-0.033851225,-0.003329356,-0.012410383,-0.04138031,-0.015191427,0.081536375,0.051437203,0.041952424,0.005350191,0.0018351419,0.023810681,0.02443389,0.05700496,-0.015695821,-0.0020269193,0.017966095,0.0027225735,0.06421536,0.039934233,0.030414332,-0.03672282,0.026084967,-0.0037125929,-0.09824262,-0.021789024,0.019891923,-0.032013427,0.027501825,-0.027883906,0.008831252,0.032042086,0.006194349,0.042886473,-0.0049653375,0.04274846,0.03717787,-0.012931233,0.068213575,-0.026580524,-0.03511592,-0.019155283,0.07283073,0.0571273,-0.09653082
hand edema,-0.025910305,-0.0008968303,-0.05712456,0.019698715,-0.011911233,0.033707593,0.03569645,-0.012926921,0.084041305,0.08566176,0.024870578,0.025733026,0.04640961,0.0016111565,-0.049875304,-0.086229116,0.06533312,-0.047449905,-0.05410836,0.03580836,0.022050131,0.046504825,0.030212006,-0.036592145,0.023831751,-0.036282394,0.0056291954,0.038090385,0.05993289,-0.023459684,0.022461982,-0.018577969,0.045566056,0.07202243,0.028089887,0.012444896,0.008942444,-0.025788847,-0.06183897,-0.06521148,-0.07153863,-0.04098883,-0.030719535,-0.008343748,-0.037127934,0.08780596,0.039983753,0.034813225,0.02586568,0.006176813,0.014897872,0.02487936,0.021288905,0.013964459,-0.038686313,-0.019074012,-0.050088484,0.018338678,0.08664526,0.013901119,0.018970087,-0.010939445,0.032157462,-0.012108512,0.03372507,-0.014271135,-0.006118316,-0.021451026,-0.045612793,0.054550022,0.017152641,-0.0031900068,-0.012640811,-0.029458625,0.06254226,0.058384445,0.01705637,-0.038314026,0.02878129,-0.0123251695,0.012248185,0.04498187,0.01024239,0.06976923,0.065127335,0.0021352128,0.03568981,-0.014524534,0.011584423,0.04996523,0.07691482,0.016573267,-0.038200412,0.004900887,0.014985668,-0.015379599,-0.029305222,-0.07727208,0.029168066,0.01887408,0.020087954,-0.052540146,0.03207655,0.009073379,0.018539926,-0.015848897,0.04586113,-0.0024558317,-0.036171474,0.07076896,0.0074703996,0.024830842,0.0020904888,-0.004299056,0.024714977,-0.03146613,0.015027105,-0.026319038,-0.026363881,0.011528319,0.004968657,0.03706198,-0.041644078,0.01290561,0.008793099,0.005811583,-0.052973706,-0.025772065,-0.054417334,0.025218664,0.06548586,0.001367381,0.047885876,0.05359549,0.04654308,-0.045658544,0.039282963,0.015249693,0.023447555,0.025708264,0.031577397,-0.10377959,-0.013865792,-0.0005535107,-0.0107970955,0.0028569908,0.02134236,-0.05114478,0.003460247,-0.05474271,-0.04312506,0.070474975,0.04887639,0.00047091328,0.0047299517,0.05770878,0.017214246,-0.0001633894,0.0696475,-0.022681572,-0.010950938,0.006249797,0.055845603,0.017771186,0.015725486,0.032827657,-0.02965428,-0.08240357,0.000276827,-0.028259825,-0.0356901,-0.08506543,0.010621499,-0.107652485,-0.04249279,-0.050028354,0.01238642,0.01780409,-0.047140483,0.015030336,0.034535985,-0.00043304006,0.071112685,-0.028539993,-0.003448402,0.041471146,-0.011103085,0.004218507,0.115239,0.004780152,-0.07528229,0.06267502,-0.019754784,0.053856853,-0.014082658,0.0281598,-0.018795282,0.04811312,0.03525086,0.016937522,0.057662483,0.096937984,-0.016396053,0.005359208,-0.018636877,-0.0020401324,-0.06922531,0.0040149824,0.04207145,-0.00010448602,-0.0013825096,-0.026845753,0.0012404318,-0.060440805,0.06153345,0.034940585,-0.02254128,-0.027810501,0.045327153,0.011735959,-0.020166883,-0.018993527,0.037881564,0.030976439,-0.0060881665,-0.019241592,-0.04682909,0.022761572,-0.009335753,0.020310963,-0.055560123,-0.0018344964,-0.014472206,-0.013145736,0.04062316,0.070713826,0.02251559,0.032631997,0.037311964,-0.020684564,-0.01454704,0.027138107,0.10285293,0.044815857,0.064999595,-0.07962935,0.039909586,0.07877922,0.0060238405,-0.04978244,-0.0920704,-0.034086976,0.04254116,0.025601443,-0.011550632,-0.015855622,-0.012850453,-0.05016258,0.014530981,-0.033916496,0.048318934,-0.0024433394,0.011480273,-0.07317862,0.001041196,-0.012074956,0.007700644,0.00064497016,0.05106882,-0.022726249,0.0027869346,-0.0248701,-0.033981092,0.047023956,-0.0030374082,0.0041869897,-0.0017046814,-0.062618226,0.011764343,-0.023421202,-0.046390973,-0.015402372,0.039107677,-0.01702351,0.029324958,-0.025154158,0.03731916,0.024281781,-0.0010625119,-0.012887961,-0.052042965,-0.013969486,-0.07871496,0.026845297,0.05131434,0.031455018,0.0123081645,0.056341097,-0.010039288,0.010670503,-0.053485792,0.037776522,-0.015192972,-0.05928681,-0.017711598,0.009820414,-0.00875082,0.028781174,-0.061794747,-0.003166477,0.0139705185,0.032240216,-0.017583255,-0.03243079,0.005174808,-0.041148905,-0.037197385,-0.01613055,-0.014538696,-0.0013165923,-0.05636521,0.013680278,-0.04612917,0.04163562,0.057630133,-0.020145293,0.019355485,-0.02833808,0.0018410124,0.10053565,0.093765095,-0.011939162,-0.05093861,-0.048494805,0.002048225,-0.032022122,-0.067777514,0.023892637,0.027914396,-0.03900299,0.0055099577,-0.007710503,0.013504208,0.025717936,0.0067838244,-0.061401974,-0.0060978187,-0.035440035,-0.001743756,-0.017966086,-0.012370873,0.047704037,-0.010422259,-0.035610903,0.006787189,0.008407735,0.041585468,0.00939193,0.030248938,0.044906177,0.0062035946,0.010756468,0.04553453,-0.011038348,0.03585473,-0.001909156,0.027069777,0.02131054,-0.044502698,-0.028092833,0.01354907,0.007357731,-0.016814841,-0.018939896,-0.02458294,-0.040987343,-0.021150127,-0.013617861,-0.040633615,-0.00415525,-0.012078628,-0.046734948,-0.025772315,0.021018978,0.035821263,0.037312895,-0.046507128,0.041381508,-0.011440927,-0.01170178,0.0010733986,0.015350003,-0.011945552,0.030148117,-0.03236743,0.013934048,0.008636915,0.033086978,-0.043304108,-0.08083896,-0.016246371,-0.01051831,0.05004612,-0.02356662,0.005463089,-0.028268496,0.036279403,0.05177833,-0.014107493,-0.0071016387,0.0828331,0.013252795,-0.028421396,0.0015115592,-0.037065975,-0.031940095,0.03622302,-0.013583989,0.034322985,0.00913026,0.01737634,0.0034270126,0.058060247,0.072535224,-0.091207355,-0.017995752,-0.020049894,-0.00866096,-0.033324026,0.041728348,0.044038497,0.051997233,-0.05461304,0.036500372,0.012687462,-0.0062902276,0.010228542,-0.066760704,0.015160768,0.010494889,0.07275439,0.0024423865,0.050596893,0.076056845,-0.031064393,0.06669646,0.01249821,-0.046661343,-0.020076634,-0.053873375,-0.015592974,-0.013643862,-0.013136839,-0.04734372,-0.022556908,-0.023075784,0.03486956,0.031880084,0.001194183,-0.04328732,-0.027669119,-0.023218958,0.05711792,-0.0050759073,0.023407442,-0.08321447,-0.01677968,0.0078071565,0.016128352,0.022069246,0.008265086,0.017795924,0.027585786,-0.024404395,-0.04725177,0.020774709,0.03784617,0.022080442,-0.00036687107,0.007898958,-0.005290926,0.004415475,-0.0069171553,0.007261604,0.021933712,-0.021452973,-0.02160827,-0.022742407,-0.0010892751,-0.021219326,0.037285775,0.030358518,-0.030671803,-0.042170748,-0.034118522,0.0012228376,-0.024420641,-0.01697255,-0.027682114,0.033972614,0.05651662,-0.024765717,-0.0243487,-0.051966786,-0.0066146306,0.0064804587,-0.037081476,-0.00096357387,0.04644049,-0.05789723,-0.0047084135,0.021861693,0.03955711,-0.052758146,0.036508974,0.020256588,-0.047312666,0.07072814,0.024784096,-0.045405574,0.045625698,0.03566915,0.030320872,-0.038854435,0.0018677756,-0.0419792,0.02059065,-0.03199,0.05275194,-0.043978926,-0.01784789,0.052441146,-0.014479513,-0.04068099,0.006316367,0.0096120825,0.046711337,0.024934277,0.031172398,0.024555253,-0.0031954534,-0.014433064,0.029253341,-0.0011504471,0.034224667,0.006386158,0.06858971,0.072372705,-0.01491708,0.08308178,0.0020425466,0.0152130835,0.010491641,0.017238876,0.022333395,-0.004423855,0.057511862,-0.013547228,-0.017155143,-0.0069157095,-0.026165599,0.0006618886,0.060834456,-0.03602372,0.0394189,0.05237226,-0.010113962,0.024495943,-0.030255232,-0.010441411,0.028436366,0.0017029349,0.08726309,-0.04458614,0.04490988,0.012562076,-0.039710145,-0.013545281,0.02210243,-0.0026120418,-0.0010463595,0.033831228,-0.014946108,0.020537186,-0.031314384,-0.04364902,0.054154254,-0.012776597,-0.0055736923,0.027367866,0.0066470667,0.03714819,-0.0018561519,-0.03439918,-0.03646947,-0.06748319,-0.018418659,-0.024804758,0.02590783,0.005114908,0.013724414,0.035698574,-0.03126524,-0.0041582277,-0.059328478,-0.043214906,0.035259906,-0.019476794,0.0020574932,-0.012438629,-0.038714923,-0.0146137625,-0.041090224,-0.01513946,-0.0072031105,-0.004534099,-0.039919123,-0.049573757,0.023276128,0.025965072,0.014844456,-0.012321211,0.009782435,0.0084024295,-0.1032363,0.010987372,0.025727833,0.014233609,0.014797219,0.009526471,-0.0043262336,0.0676169,0.010985608,-0.004814378,-0.06792604,-0.016879998,-0.025717977,-0.027272066,0.032665018,0.016501972,0.025851373,0.036107123,0.025499139,0.018144555,-0.0047419416,-0.045760322,0.022330385,-0.026555676,0.041693296,-0.0171739,-0.026086785,0.0068025757,-0.077951856,0.025779326,0.0178262,-0.034308024,-0.09365764,-0.003582072,0.011727565,0.002397631,0.015330345,-0.03208381,0.01774233,-0.00031688355,-0.014249024,0.030476874,-0.011175454,0.02899847,-0.00021120592,-0.020508904,-0.0067321826,-0.009178824,0.002851839,0.0016330809,0.0071044634,-0.003333563,0.025147948,-0.00041793805,-0.04537094,0.009066711,0.036788475,0.031585094,0.02740782,-0.03741743,0.0037341928,-0.010425137,0.018182412,-0.0054799826,0.007850414,0.05254723,0.057307325,0.023539409,-0.06005543,0.07122284,0.029795127,0.002935994,-0.023601906,-0.029312124,0.029226046,-0.003309851,0.0056539034,-0.036638808,-0.019153528,-0.009344731,0.065837026,0.026719289,0.055804472,0.069254786,-0.06294457,0.008417272,0.014125521,-0.022273976,0.015886957,-0.028697794,0.005134241,0.014992003,0.01690314,-0.014389916,0.0032118377,-0.0008240849,-0.045502577,-0.003685805,0.0007617103,-0.015525985,0.00278165,-0.0010584957,-0.030873932,0.018274562,-0.044941556,0.051608216,-0.0020845707,-0.0063051647,-0.0067644888,0.017176546,-0.020174641,-0.006204738,0.05063292,-0.022240676,0.0023222496,0.028224135,-0.03979448,0.03129678,0.03887283,-0.019198311,-0.03354378,-0.0029558437,0.00064564304,-0.01188112,-0.022325411,-0.060502607,-0.07926442,0.00668842,0.0121422075,0.018979749,0.0052588983,-0.019211402,0.007235651,-0.031225758,0.012038418,-0.00021524065,0.0064111594,0.061799042,-0.08051438,-0.015880132,-0.06512102,-0.0100123165,-0.013171465,-0.039197646
